{"learner":{"attributes":{"scikit_learn":"{\"_estimator_type\": \"classifier\"}"},"feature_names":["koi_period","koi_time0bk","koi_impact","koi_duration","koi_depth","koi_prad","koi_teq","koi_insol","koi_model_snr","koi_srad"],"feature_types":["float","float","float","float","float","float","float","float","float","float"],"gradient_booster":{"model":{"gbtree_model_param":{"num_parallel_tree":"1","num_trees":"900"},"iteration_indptr":[0,3,6,9,12,15,18,21,24,27,30,33,36,39,42,45,48,51,54,57,60,63,66,69,72,75,78,81,84,87,90,93,96,99,102,105,108,111,114,117,120,123,126,129,132,135,138,141,144,147,150,153,156,159,162,165,168,171,174,177,180,183,186,189,192,195,198,201,204,207,210,213,216,219,222,225,228,231,234,237,240,243,246,249,252,255,258,261,264,267,270,273,276,279,282,285,288,291,294,297,300,303,306,309,312,315,318,321,324,327,330,333,336,339,342,345,348,351,354,357,360,363,366,369,372,375,378,381,384,387,390,393,396,399,402,405,408,411,414,417,420,423,426,429,432,435,438,441,444,447,450,453,456,459,462,465,468,471,474,477,480,483,486,489,492,495,498,501,504,507,510,513,516,519,522,525,528,531,534,537,540,543,546,549,552,555,558,561,564,567,570,573,576,579,582,585,588,591,594,597,600,603,606,609,612,615,618,621,624,627,630,633,636,639,642,645,648,651,654,657,660,663,666,669,672,675,678,681,684,687,690,693,696,699,702,705,708,711,714,717,720,723,726,729,732,735,738,741,744,747,750,753,756,759,762,765,768,771,774,777,780,783,786,789,792,795,798,801,804,807,810,813,816,819,822,825,828,831,834,837,840,843,846,849,852,855,858,861,864,867,870,873,876,879,882,885,888,891,894,897,900],"tree_info":[0,1,2,0,1,2,0,1,2,0,1,2,0,1,2,0,1,2,0,1,2,0,1,2,0,1,2,0,1,2,0,1,2,0,1,2,0,1,2,0,1,2,0,1,2,0,1,2,0,1,2,0,1,2,0,1,2,0,1,2,0,1,2,0,1,2,0,1,2,0,1,2,0,1,2,0,1,2,0,1,2,0,1,2,0,1,2,0,1,2,0,1,2,0,1,2,0,1,2,0,1,2,0,1,2,0,1,2,0,1,2,0,1,2,0,1,2,0,1,2,0,1,2,0,1,2,0,1,2,0,1,2,0,1,2,0,1,2,0,1,2,0,1,2,0,1,2,0,1,2,0,1,2,0,1,2,0,1,2,0,1,2,0,1,2,0,1,2,0,1,2,0,1,2,0,1,2,0,1,2,0,1,2,0,1,2,0,1,2,0,1,2,0,1,2,0,1,2,0,1,2,0,1,2,0,1,2,0,1,2,0,1,2,0,1,2,0,1,2,0,1,2,0,1,2,0,1,2,0,1,2,0,1,2,0,1,2,0,1,2,0,1,2,0,1,2,0,1,2,0,1,2,0,1,2,0,1,2,0,1,2,0,1,2,0,1,2,0,1,2,0,1,2,0,1,2,0,1,2,0,1,2,0,1,2,0,1,2,0,1,2,0,1,2,0,1,2,0,1,2,0,1,2,0,1,2,0,1,2,0,1,2,0,1,2,0,1,2,0,1,2,0,1,2,0,1,2,0,1,2,0,1,2,0,1,2,0,1,2,0,1,2,0,1,2,0,1,2,0,1,2,0,1,2,0,1,2,0,1,2,0,1,2,0,1,2,0,1,2,0,1,2,0,1,2,0,1,2,0,1,2,0,1,2,0,1,2,0,1,2,0,1,2,0,1,2,0,1,2,0,1,2,0,1,2,0,1,2,0,1,2,0,1,2,0,1,2,0,1,2,0,1,2,0,1,2,0,1,2,0,1,2,0,1,2,0,1,2,0,1,2,0,1,2,0,1,2,0,1,2,0,1,2,0,1,2,0,1,2,0,1,2,0,1,2,0,1,2,0,1,2,0,1,2,0,1,2,0,1,2,0,1,2,0,1,2,0,1,2,0,1,2,0,1,2,0,1,2,0,1,2,0,1,2,0,1,2,0,1,2,0,1,2,0,1,2,0,1,2,0,1,2,0,1,2,0,1,2,0,1,2,0,1,2,0,1,2,0,1,2,0,1,2,0,1,2,0,1,2,0,1,2,0,1,2,0,1,2,0,1,2,0,1,2,0,1,2,0,1,2,0,1,2,0,1,2,0,1,2,0,1,2,0,1,2,0,1,2,0,1,2,0,1,2,0,1,2,0,1,2,0,1,2,0,1,2,0,1,2,0,1,2,0,1,2,0,1,2,0,1,2,0,1,2,0,1,2,0,1,2,0,1,2,0,1,2,0,1,2,0,1,2,0,1,2,0,1,2,0,1,2,0,1,2,0,1,2,0,1,2,0,1,2,0,1,2,0,1,2,0,1,2,0,1,2,0,1,2,0,1,2,0,1,2,0,1,2,0,1,2,0,1,2,0,1,2,0,1,2,0,1,2,0,1,2,0,1,2,0,1,2,0,1,2,0,1,2,0,1,2,0,1,2,0,1,2,0,1,2,0,1,2,0,1,2,0,1,2,0,1,2,0,1,2,0,1,2,0,1,2,0,1,2,0,1,2,0,1,2,0,1,2,0,1,2,0,1,2,0,1,2,0,1,2,0,1,2,0,1,2,0,1,2,0,1,2,0,1,2,0,1,2,0,1,2,0,1,2,0,1,2,0,1,2,0,1,2,0,1,2,0,1,2,0,1,2,0,1,2,0,1,2,0,1,2,0,1,2,0,1,2,0,1,2,0,1,2,0,1,2,0,1,2,0,1,2,0,1,2,0,1,2,0,1,2,0,1,2,0,1,2,0,1,2,0,1,2,0,1,2,0,1,2,0,1,2,0,1,2,0,1,2,0,1,2,0,1,2,0,1,2,0,1,2,0,1,2,0,1,2],"trees":[{"base_weights":[3.6007532E-1,2.8356194E-2,1.3307252E0,-1.7152289E-1,8.5994834E-1,8.58866E-1,1.3968091E0,-2.6749012E-1,5.2132285E-1,5.223428E-1,1.0869961E0,-6.554349E-2,9.0668786E-1,1.1232334E0,2.15631E-1,1.9109426E-2,-5.98244E-2,1.1256569E-1,1.8166661E-2,1.2715714E-1,4.825899E-3,1.7422682E-1,1.108735E-1,1.1110825E-1,1.675E-1,1.8838689E-1,6.12931E-2],"categories":[],"categories_nodes":[],"categories_segments":[],"categories_sizes":[],"default_left":[0,0,0,0,0,0,0,0,0,0,0,0,0,0,0,0,0,0,0,0,0,0,0,0,0,0,0],"id":0,"left_children":[1,3,5,7,9,11,13,15,17,19,21,-1,23,25,-1,-1,-1,-1,-1,-1,-1,-1,-1,-1,-1,-1,-1],"loss_changes":[1.053675E3,4.06194E2,2.336731E1,1.3123975E2,3.5002777E1,7.5181885E0,4.6241455E0,8.994577E1,2.175814E1,3.0868896E1,5.37912E0,0E0,1.8075562E0,8.646774E0,0E0,0E0,0E0,0E0,0E0,0E0,0E0,0E0,0E0,0E0,0E0,0E0,0E0],"parents":[2147483647,0,0,1,1,2,2,3,3,4,4,5,5,6,6,7,7,8,8,9,9,10,10,12,12,13,13],"right_children":[2,4,6,8,10,12,14,16,18,20,22,-1,24,26,-1,-1,-1,-1,-1,-1,-1,-1,-1,-1,-1,-1,-1],"split_conditions":[1.435E1,1.391E3,2.27E1,1.0534E1,1.722E3,8.875E-1,2.35E1,1.07E1,1.143E0,1.03E0,1.3260803E2,-6.554349E-2,5.194E0,1.471E0,2.15631E-1,1.9109426E-2,-5.98244E-2,1.1256569E-1,1.8166661E-2,1.2715714E-1,4.825899E-3,1.7422682E-1,1.108735E-1,1.1110825E-1,1.675E-1,1.8838689E-1,6.12931E-2],"split_indices":[5,6,8,3,6,3,5,8,9,9,1,0,3,9,0,0,0,0,0,0,0,0,0,0,0,0,0],"split_type":[0,0,0,0,0,0,0,0,0,0,0,0,0,0,0,0,0,0,0,0,0,0,0,0,0,0,0],"sum_hessian":[3.2711108E3,2.4395554E3,8.315555E2,1.9679999E3,4.7155554E2,1.0577777E2,7.257777E2,1.7297777E3,2.3822221E2,1.9244443E2,2.7911108E2,3.111111E0,1.02666664E2,1.0177777E2,6.2399994E2,4.3155554E2,1.2982222E3,1.5022221E2,8.799999E1,1.1466666E2,7.777777E1,2.2577777E2,5.333333E1,6.2666664E1,3.9999996E1,8.444444E1,1.7333332E1],"tree_param":{"num_deleted":"0","num_feature":"10","num_nodes":"27","size_leaf_vector":"1"}},{"base_weights":[-2.9581442E-1,2.4501258E-1,-5.863381E-1,3.4944013E-1,-2.6862863E-1,-2.2812955E-1,-6.136701E-1,4.497265E-1,1.7462643E-2,-3.3257675E-1,5.1521736E-1,-1.1883122E-1,-5.7000005E-1,-4.459748E-1,-6.40695E-1,2.8782045E-2,8.528371E-2,-1.5903492E-2,4.2023074E-2,-1.6015857E-2,-7.344341E-2,1.1779412E-1,-2.2500006E-2,-4.4804357E-2,2.8485218E-2,-9.2971705E-2,4.05E-2,-2.009359E-2,-7.431819E-2,-9.073926E-2,-1.0947339E-1],"categories":[],"categories_nodes":[],"categories_segments":[],"categories_sizes":[],"default_left":[0,0,0,0,0,0,0,0,0,0,0,0,0,0,0,0,0,0,0,0,0,0,0,0,0,0,0,0,0,0,0],"id":1,"left_children":[1,3,5,7,9,11,13,15,17,19,21,23,25,27,29,-1,-1,-1,-1,-1,-1,-1,-1,-1,-1,-1,-1,-1,-1,-1,-1],"loss_changes":[5.146026E2,6.161763E1,2.0489685E1,3.1654526E1,1.0071054E1,5.5666018E0,8.2821045E0,2.2114014E1,7.3214517E0,6.2583065E0,3.0539002E0,6.7755885E0,1.9038677E0,4.1511345E0,4.3964233E0,0E0,0E0,0E0,0E0,0E0,0E0,0E0,0E0,0E0,0E0,0E0,0E0,0E0,0E0,0E0,0E0],"parents":[2147483647,0,0,1,1,2,2,3,3,4,4,5,5,6,6,7,7,8,8,9,9,10,10,11,11,12,12,13,13,14,14],"right_children":[2,4,6,8,10,12,14,16,18,20,22,24,26,28,30,-1,-1,-1,-1,-1,-1,-1,-1,-1,-1,-1,-1,-1,-1,-1,-1],"split_conditions":[1.54E1,9.7838E2,3.72E2,1.26E1,1.3421698E2,2.276E1,1.873E0,3.87E2,1.152E0,2.0243E0,2.003E3,9.15E-1,1.3275E0,1.89E1,3.118E1,2.8782045E-2,8.528371E-2,-1.5903492E-2,4.2023074E-2,-1.6015857E-2,-7.344341E-2,1.1779412E-1,-2.2500006E-2,-4.4804357E-2,2.8485218E-2,-9.2971705E-2,4.05E-2,-2.009359E-2,-7.431819E-2,-9.073926E-2,-1.0947339E-1],"split_indices":[8,7,6,8,1,5,3,6,9,3,6,9,2,8,5,0,0,0,0,0,0,0,0,0,0,0,0,0,0,0,0],"split_type":[0,0,0,0,0,0,0,0,0,0,0,0,0,0,0,0,0,0,0,0,0,0,0,0,0,0,0,0,0,0,0],"sum_hessian":[3.2711108E3,1.1431111E3,2.1279998E3,9.506666E2,1.9244443E2,1.5244444E2,1.9755554E3,7.293333E2,2.2133331E2,1.791111E2,1.3333332E1,1.1777777E2,3.4666664E1,2.7955554E2,1.6959999E3,2.3199998E2,4.973333E2,1.511111E2,7.022222E1,7.511111E1,1.0399999E2,9.333333E0,3.9999998E0,7.4666664E1,4.3111107E1,3.3333332E1,1.3333333E0,3.9555553E1,2.3999998E2,1.2222222E3,4.7377774E2],"tree_param":{"num_deleted":"0","num_feature":"10","num_nodes":"31","size_leaf_vector":"1"}},{"base_weights":[-6.423048E-2,1.6218771E-1,-7.138488E-1,-5.073948E-1,6.366271E-1,-4.0440005E-1,-1.08369224E-1,-6.715447E-1,-1.8021588E-1,8.6092144E-1,-2.8888452E-1,-4.961539E-1,6.2205885E-2,-1.0407192E-1,-7.099255E-2,-1.18540935E-2,-1.02895275E-1,1.4544487E-1,-1.2815407E-2,-1.1378989E-2,-9.474427E-2,-7.8445956E-2,-0E0],"categories":[],"categories_nodes":[],"categories_segments":[],"categories_sizes":[],"default_left":[0,0,0,0,0,0,0,0,0,0,0,0,0,0,0,0,0,0,0,0,0,0,0],"id":2,"left_children":[1,3,5,7,9,11,-1,13,15,17,19,21,-1,-1,-1,-1,-1,-1,-1,-1,-1,-1,-1],"loss_changes":[4.817136E2,7.721887E2,1.5588989E0,5.382071E1,2.9583557E2,2.507331E0,0E0,2.1865234E0,1.7203678E1,1.1810828E2,2.0195904E1,3.4596634E-1,0E0,0E0,0E0,0E0,0E0,0E0,0E0,0E0,0E0,0E0,0E0],"parents":[2147483647,0,0,1,1,2,2,3,3,4,4,5,5,7,7,8,8,9,9,10,10,11,11],"right_children":[2,4,6,8,10,12,-1,14,16,18,20,22,-1,-1,-1,-1,-1,-1,-1,-1,-1,-1,-1],"split_conditions":[1.366E1,1.46E1,1.511E1,1.14E1,1.426E3,8.504E2,-1.08369224E-1,7.31E-1,2.1431204E2,1.01E1,4.48176E3,1.0994E1,6.2205885E-2,-1.0407192E-1,-7.099255E-2,-1.18540935E-2,-1.02895275E-1,1.4544487E-1,-1.2815407E-2,-1.1378989E-2,-9.474427E-2,-7.8445956E-2,-0E0],"split_indices":[5,8,5,8,6,8,0,2,0,3,7,3,0,0,0,0,0,0,0,0,0,0,0],"split_type":[0,0,0,0,0,0,0,0,0,0,0,0,0,0,0,0,0,0,0,0,0,0,0],"sum_hessian":[3.2711108E3,2.4266665E3,8.444444E2,1.00622217E3,1.4204443E3,2.5777777E1,8.186666E2,6.684444E2,3.3777777E2,1.1435555E3,2.768889E2,2.3999998E1,1.7777777E0,5.9599994E2,7.244444E1,2.8355554E2,5.4222218E1,1.0257777E3,1.1777777E2,1.7244443E2,1.04444435E2,2.2666666E1,1.3333333E0],"tree_param":{"num_deleted":"0","num_feature":"10","num_nodes":"23","size_leaf_vector":"1"}},{"base_weights":[3.1287417E-1,2.6026364E-2,1.0881283E0,7.74976E-1,-1.630914E-1,7.5007254E-1,1.1405082E0,9.2134154E-1,4.4445392E-1,-2.614299E-1,4.0643403E-1,7.647351E-1,-0E0,7.952981E-1,1.1602437E0,1.4849384E-1,9.860097E-2,3.3667933E-2,1.1607046E-1,5.66241E-2,-4.703045E-2,7.353514E-2,-3.561258E-2,9.123509E-2,1.3441877E-1,1.2884255E-1,-5.3901993E-2,1.742171E-1,3.0338528E-2],"categories":[],"categories_nodes":[],"categories_segments":[],"categories_sizes":[],"default_left":[0,0,0,0,0,0,0,0,0,0,0,0,0,0,0,0,0,0,0,0,0,0,0,0,0,0,0,0,0],"id":3,"left_children":[1,3,5,7,9,11,13,15,17,19,21,23,-1,25,27,-1,-1,-1,-1,-1,-1,-1,-1,-1,-1,-1,-1,-1,-1],"loss_changes":[7.4185657E2,3.4559085E2,1.405481E1,2.28414E1,1.0928743E2,1.4121628E0,3.2462158E0,4.672241E0,1.07871895E1,5.5574043E1,1.5766563E1,1.320961E0,0E0,4.2391586E0,2.3480225E-1,0E0,0E0,0E0,0E0,0E0,0E0,0E0,0E0,0E0,0E0,0E0,0E0,0E0,0E0],"parents":[2147483647,0,0,1,1,2,2,3,3,4,4,5,5,6,6,7,7,8,8,9,9,10,10,11,11,13,13,14,14],"right_children":[2,4,6,8,10,12,14,16,18,20,22,24,-1,26,28,-1,-1,-1,-1,-1,-1,-1,-1,-1,-1,-1,-1,-1,-1],"split_conditions":[1.435E1,2.3432305E0,2.54E1,1.873E2,2.0630966E2,2.48E1,1.868E1,1.5585442E0,2.08E0,7.8E0,2.02E1,8.16E2,-0E0,2.4348E3,6.1516034E2,1.4849384E-1,9.860097E-2,3.3667933E-2,1.1607046E-1,5.66241E-2,-4.703045E-2,7.353514E-2,-3.561258E-2,9.123509E-2,1.3441877E-1,1.2884255E-1,-5.3901993E-2,1.742171E-1,3.0338528E-2],"split_indices":[5,0,8,4,0,8,5,0,5,8,8,6,0,8,0,0,0,0,0,0,0,0,0,0,0,0,0,0,0],"split_type":[0,0,0,0,0,0,0,0,0,0,0,0,0,0,0,0,0,0,0,0,0,0,0,0,0,0,0,0,0],"sum_hessian":[3.3347424E3,2.435713E3,8.990295E2,4.8990604E2,1.9458069E3,1.2497833E2,7.7405115E2,3.368574E2,1.5304863E2,1.6603722E3,2.8543472E2,1.2257051E2,2.4078252E0,4.6599854E1,7.274513E2,2.6269998E2,7.415741E1,9.395471E1,5.909392E1,1.24112114E2,1.5362601E3,2.531222E2,3.2312523E1,6.142524E1,6.114527E1,4.4732662E1,1.8671908E0,7.260101E2,1.4412159E0],"tree_param":{"num_deleted":"0","num_feature":"10","num_nodes":"29","size_leaf_vector":"1"}},{"base_weights":[-2.6842108E-1,2.1435413E-1,-5.456081E-1,-3.1035575E-1,3.1842858E-1,-5.6971943E-1,-8.116358E-2,-3.585753E-2,-5.870766E-1,4.0141267E-1,2.6470192E-2,-3.9821708E-1,-5.973575E-1,4.4104677E-2,-5.537346E-1,-3.0940173E-2,3.2772053E-2,-9.743891E-2,-5.166049E-2,7.975788E-2,2.3797823E-2,-2.5387637E-2,2.671665E-2,-6.2431987E-2,9.3391195E-2,-9.612275E-2,-7.5129725E-2,2.3956802E-2,-5.5152975E-2,-0E0,-8.8844486E-2],"categories":[],"categories_nodes":[],"categories_segments":[],"categories_sizes":[],"default_left":[0,0,0,0,0,0,0,0,0,0,0,0,0,0,0,0,0,0,0,0,0,0,0,0,0,0,0,0,0,0,0],"id":4,"left_children":[1,3,5,7,9,11,13,15,17,19,21,23,25,27,29,-1,-1,-1,-1,-1,-1,-1,-1,-1,-1,-1,-1,-1,-1,-1,-1],"loss_changes":[4.2661334E2,6.3728043E1,2.2515076E1,1.4586824E1,2.34842E1,8.545288E0,6.165096E0,4.3973403E0,9.096184E-1,2.36904E1,6.517137E0,5.523033E0,6.1743774E0,4.0324426E0,5.1755047E-1,0E0,0E0,0E0,0E0,0E0,0E0,0E0,0E0,0E0,0E0,0E0,0E0,0E0,0E0,0E0,0E0],"parents":[2147483647,0,0,1,1,2,2,3,3,4,4,5,5,6,6,7,7,8,8,9,9,10,10,11,11,12,12,13,13,14,14],"right_children":[2,4,6,8,10,12,14,16,18,20,22,24,26,28,30,-1,-1,-1,-1,-1,-1,-1,-1,-1,-1,-1,-1,-1,-1,-1,-1],"split_conditions":[1.54E1,2.4044123E0,1.6151561E2,2.0243E0,1.26E1,1.873E0,2.866E2,1.111E2,1.7342212E0,1.1248226E2,1.4340035E1,2.3137592E1,1.608519E1,9.62E-1,7.5834E3,-3.0940173E-2,3.2772053E-2,-9.743891E-2,-5.166049E-2,7.975788E-2,2.3797823E-2,-2.5387637E-2,2.671665E-2,-6.2431987E-2,9.3391195E-2,-9.612275E-2,-7.5129725E-2,2.3956802E-2,-5.5152975E-2,-0E0,-8.8844486E-2],"split_indices":[8,0,0,3,8,3,8,4,0,0,0,0,0,2,4,0,0,0,0,0,0,0,0,0,0,0,0,0,0,0,0],"split_type":[0,0,0,0,0,0,0,0,0,0,0,0,0,0,0,0,0,0,0,0,0,0,0,0,0,0,0,0,0,0,0],"sum_hessian":[3.183992E3,1.1613562E3,2.0226357E3,1.9140894E2,9.6994727E2,1.9221783E3,1.0045738E2,9.740593E1,9.400301E1,7.544233E2,2.1552399E2,2.7155215E2,1.6506262E3,8.0674164E1,1.9783224E1,5.8788147E1,3.8617783E1,7.175278E1,2.2250238E1,4.8909778E2,2.6532547E2,9.36977E1,1.21826294E2,2.681082E2,3.4439673E0,1.1295522E3,5.21074E2,6.413569E1,1.6538473E1,1.2688129E0,1.8514412E1],"tree_param":{"num_deleted":"0","num_feature":"10","num_nodes":"31","size_leaf_vector":"1"}},{"base_weights":[-5.8270466E-2,1.4119877E-1,-6.7237073E-1,-1.6971569E-1,3.8604322E-1,8.375285E-2,-6.75952E-1,-4.9356052E-1,-2.1307433E-2,5.8171046E-1,-5.091545E-1,-5.052493E-2,8.715554E-2,-4.1091335E-1,-1.02490455E-1,-8.297715E-2,1.6628688E-2,9.854017E-3,-9.462539E-2,9.6946485E-2,-6.3348345E-2,-9.041843E-2,-1.1207903E-2,-7.8909405E-2,-2.21163E-2],"categories":[],"categories_nodes":[],"categories_segments":[],"categories_sizes":[],"default_left":[0,0,0,0,0,0,0,0,0,0,0,0,0,0,0,0,0,0,0,0,0,0,0,0,0],"id":5,"left_children":[1,3,5,7,9,11,13,15,17,19,21,-1,-1,23,-1,-1,-1,-1,-1,-1,-1,-1,-1,-1,-1],"loss_changes":[3.9690656E2,1.8634195E2,2.3237E0,5.177279E1,2.4040886E2,1.5437493E0,8.631592E-1,1.2372055E1,3.9489296E1,7.3505585E1,9.87122E0,0E0,0E0,5.8567095E-1,0E0,0E0,0E0,0E0,0E0,0E0,0E0,0E0,0E0,0E0,0E0],"parents":[2147483647,0,0,1,1,2,2,3,3,4,4,5,5,6,6,7,7,8,8,9,9,10,10,13,13],"right_children":[2,4,6,8,10,12,14,16,18,20,22,-1,-1,24,-1,-1,-1,-1,-1,-1,-1,-1,-1,-1,-1],"split_conditions":[1.366E1,2.395E2,1.314952E2,2.2524178E0,1.6151561E2,1.133573E0,1.511E1,1.3303488E2,7.3909E1,9.65E-1,1.2138E3,-5.052493E-2,8.715554E-2,8.3221E3,-1.02490455E-1,-8.297715E-2,1.6628688E-2,9.854017E-3,-9.462539E-2,9.6946485E-2,-6.3348345E-2,-9.041843E-2,-1.1207903E-2,-7.8909405E-2,-2.21163E-2],"split_indices":[5,4,1,0,0,0,5,1,0,2,4,0,0,4,0,0,0,0,0,0,0,0,0,0,0],"split_type":[0,0,0,0,0,0,0,0,0,0,0,0,0,0,0,0,0,0,0,0,0,0,0,0,0],"sum_hessian":[3.2362258E3,2.4438145E3,7.924113E2,1.0767343E3,1.3670802E3,3.3927865E0,7.890185E2,3.3669647E2,7.400378E2,1.122535E3,2.4454521E2,2.0788145E0,1.313972E0,2.4637674E1,7.6438086E2,3.067712E2,2.9925264E1,6.490204E2,9.1017365E1,1.0554402E3,6.709481E1,2.0035658E2,4.418863E1,1.5493446E1,9.144228E0],"tree_param":{"num_deleted":"0","num_feature":"10","num_nodes":"25","size_leaf_vector":"1"}},{"base_weights":[2.7499294E-1,1.3898613E-1,9.597823E-1,7.3981476E-1,-4.4798534E-2,6.9863766E-1,1.0103276E0,4.8052126E-1,1.0091707E0,-1.5667312E-1,7.964126E-1,1.05344035E-1,9.499556E-1,3.1256583E-1,1.5251997E-1,2.8155373E-2,1.132867E-1,1.6795912E-1,1.2965973E-1,-4.0028125E-2,4.8391495E-2,1.3696386E-2,1.258247E-1,-6.6025384E-2,6.1006404E-2,1.900472E-2,1.4510283E-1,-1.7380139E-2,7.8081764E-2],"categories":[],"categories_nodes":[],"categories_segments":[],"categories_sizes":[],"default_left":[0,0,0,0,0,0,0,0,0,0,0,0,0,0,0,0,0,0,0,0,0,0,0,0,0,0,0,0,0],"id":6,"left_children":[1,3,5,7,9,11,13,15,17,19,21,23,25,27,-1,-1,-1,-1,-1,-1,-1,-1,-1,-1,-1,-1,-1,-1,-1],"loss_changes":[3.1202625E2,3.09422E2,5.7477417E0,4.471985E1,2.0220258E2,1.4136864E1,1.3109741E0,2.6845467E1,2.986084E0,1.00311905E2,7.2968597E0,5.48219E0,6.1465836E-1,8.0815196E-1,0E0,0E0,0E0,0E0,0E0,0E0,0E0,0E0,0E0,0E0,0E0,0E0,0E0,0E0,0E0],"parents":[2147483647,0,0,1,1,2,2,3,3,4,4,5,5,6,6,7,7,8,8,9,9,10,10,11,11,12,12,13,13],"right_children":[2,4,6,8,10,12,14,16,18,20,22,24,26,28,-1,-1,-1,-1,-1,-1,-1,-1,-1,-1,-1,-1,-1,-1,-1],"split_conditions":[1.0188E4,2.3432305E0,2.3886E4,2.222E0,9.74E-1,6.98E-1,5.19E-1,2.48449E3,1.058E0,1.5157701E2,1.434E0,3.319E0,2.25E2,3.7721E4,1.5251997E-1,2.8155373E-2,1.132867E-1,1.6795912E-1,1.2965973E-1,-4.0028125E-2,4.8391495E-2,1.3696386E-2,1.258247E-1,-6.6025384E-2,6.1006404E-2,1.900472E-2,1.4510283E-1,-1.7380139E-2,7.8081764E-2],"split_indices":[4,0,4,3,2,2,9,7,9,0,3,3,6,4,0,0,0,0,0,0,0,0,0,0,0,0,0,0,0],"split_type":[0,0,0,0,0,0,0,0,0,0,0,0,0,0,0,0,0,0,0,0,0,0,0,0,0,0,0,0,0],"sum_hessian":[3.3522646E3,2.7989197E3,5.5334485E2,6.543178E2,2.144602E3,9.486134E1,4.5848352E2,3.3641226E2,3.1790558E2,1.8944069E3,2.501951E2,2.918937E1,6.5671974E1,5.2616987E0,4.5322183E2,1.6464885E2,1.7176341E2,1.7222491E2,1.4568066E2,1.5411998E3,3.5320706E2,1.46891E1,2.35506E2,9.9412775E0,1.924809E1,1.8207934E0,6.3851177E1,1.8518603E0,3.4098382E0],"tree_param":{"num_deleted":"0","num_feature":"10","num_nodes":"29","size_leaf_vector":"1"}},{"base_weights":[-2.4343553E-1,2.0160183E-1,-5.1324564E-1,-3.4873614E-1,2.8046536E-1,-5.4729116E-1,-2.0297787E-1,-1.0585608E-1,-6.1537254E-1,3.5793376E-1,7.2030793E-3,-3.656828E-1,-5.7871157E-1,-6.856455E-2,-5.802958E-1,-8.025213E-2,-2.8059776E-3,-9.6198894E-2,-1.1285136E-2,6.859517E-2,1.9020565E-2,-2.7502492E-2,2.4286333E-2,-6.0666967E-2,6.6807116E-3,-6.7539684E-2,-8.9905605E-2,-3.6738522E-2,1.7145239E-2,-9.7663276E-2,-2.9393036E-2],"categories":[],"categories_nodes":[],"categories_segments":[],"categories_sizes":[],"default_left":[0,0,0,0,0,0,0,0,0,0,0,0,0,0,0,0,0,0,0,0,0,0,0,0,0,0,0,0,0,0,0],"id":7,"left_children":[1,3,5,7,9,11,13,15,17,19,21,23,25,27,29,-1,-1,-1,-1,-1,-1,-1,-1,-1,-1,-1,-1,-1,-1,-1,-1],"loss_changes":[3.7154614E2,5.0900944E1,2.004596E1,9.329313E0,2.161985E1,9.376587E0,9.689289E0,2.9030313E0,8.068085E-1,1.8128227E1,6.788618E0,4.2326736E0,3.2674866E0,4.759185E0,1.0332451E0,0E0,0E0,0E0,0E0,0E0,0E0,0E0,0E0,0E0,0E0,0E0,0E0,0E0,0E0,0E0,0E0],"parents":[2147483647,0,0,1,1,2,2,3,3,4,4,5,5,6,6,7,7,8,8,9,9,10,10,11,11,12,12,13,13,14,14],"right_children":[2,4,6,8,10,12,14,16,18,20,22,24,26,28,30,-1,-1,-1,-1,-1,-1,-1,-1,-1,-1,-1,-1,-1,-1,-1,-1],"split_conditions":[1.54E1,1.7342212E0,7.3909E1,2.0243E0,1.26E1,1.873E0,3.029E1,8.4E0,3.065E0,1.5157701E2,1.3821421E1,9.75172E0,2.02E1,1.6151561E2,3.6370667E2,-8.025213E-2,-2.8059776E-3,-9.6198894E-2,-1.1285136E-2,6.859517E-2,1.9020565E-2,-2.7502492E-2,2.4286333E-2,-6.0666967E-2,6.6807116E-3,-6.7539684E-2,-8.9905605E-2,-3.6738522E-2,1.7145239E-2,-9.7663276E-2,-2.9393036E-2],"split_indices":[8,0,0,3,8,3,5,8,9,0,0,0,8,0,0,0,0,0,0,0,0,0,0,0,0,0,0,0,0,0,0],"split_type":[0,0,0,0,0,0,0,0,0,0,0,0,0,0,0,0,0,0,0,0,0,0,0,0,0,0,0,0,0,0,0],"sum_hessian":[3.0902864E3,1.1664402E3,1.9238461E3,1.4518375E2,1.0212565E3,1.7319498E3,1.9189627E2,7.763489E1,6.754885E1,7.9491626E2,2.2634018E2,2.5964932E2,1.4723005E3,1.4343011E2,4.8466164E1,1.11757345E1,6.645915E1,6.3917816E1,3.6310353E0,5.5424536E2,2.406709E2,1.009644E2,1.2537578E2,2.3748065E2,2.2168684E1,2.10979E2,1.2613215E3,7.2947014E1,7.048309E1,3.953575E1,8.93041E0],"tree_param":{"num_deleted":"0","num_feature":"10","num_nodes":"31","size_leaf_vector":"1"}},{"base_weights":[-5.320779E-2,1.2275154E-1,-6.374464E-1,-4.5982993E-1,4.9125165E-1,9.3021244E-2,-6.411507E-1,-6.2073153E-1,-1.557835E-1,-2.2732845E-1,6.622201E-1,-4.7229785E-2,8.23815E-2,-3.9085788E-1,-9.725353E-2,-9.3557306E-2,4.2450495E-2,-1.0602601E-2,-9.3338706E-2,-5.5302072E-2,1.8688729E-2,1.129187E-1,-4.237622E-3,-6.7805916E-2,3.97072E-2],"categories":[],"categories_nodes":[],"categories_segments":[],"categories_sizes":[],"default_left":[0,0,0,0,0,0,0,0,0,0,0,0,0,0,0,0,0,0,0,0,0,0,0,0,0],"id":8,"left_children":[1,3,5,7,9,11,13,15,17,19,21,-1,-1,23,-1,-1,-1,-1,-1,-1,-1,-1,-1,-1,-1],"loss_changes":[3.2774893E2,5.2646606E2,2.170807E0,4.6217377E1,1.8486346E2,1.3617369E0,7.142334E-1,2.0604095E0,1.3011634E1,1.4544334E1,7.602759E1,0E0,0E0,1.3001637E0,0E0,0E0,0E0,0E0,0E0,0E0,0E0,0E0,0E0,0E0,0E0],"parents":[2147483647,0,0,1,1,2,2,3,3,4,4,5,5,6,6,7,7,8,8,9,9,10,10,13,13],"right_children":[2,4,6,8,10,12,14,16,18,20,22,-1,-1,24,-1,-1,-1,-1,-1,-1,-1,-1,-1,-1,-1],"split_conditions":[1.366E1,1.46E1,1.314952E2,1.14E1,2.3432305E0,1.133573E0,1.511E1,4.6349E3,2.1431204E2,1.3272737E2,9.29E-1,-4.7229785E-2,8.23815E-2,8.504E2,-9.725353E-2,-9.3557306E-2,4.2450495E-2,-1.0602601E-2,-9.3338706E-2,-5.5302072E-2,1.8688729E-2,1.129187E-1,-4.237622E-3,-6.7805916E-2,3.97072E-2],"split_indices":[5,8,1,8,0,0,5,4,0,1,2,0,0,8,0,0,0,0,0,0,0,0,0,0,0],"split_type":[0,0,0,0,0,0,0,0,0,0,0,0,0,0,0,0,0,0,0,0,0,0,0,0,0],"sum_hessian":[3.1841267E3,2.4481948E3,7.3593176E2,9.482651E2,1.4999298E3,3.3336427E0,7.3259814E2,6.185277E2,3.2973737E2,2.880427E2,1.2118872E3,1.9713762E0,1.3622665E0,2.3981962E1,7.0861615E2,6.172202E2,1.3074958E0,2.8099292E2,4.874445E1,2.0563594E2,8.2406746E1,1.0713228E3,1.4056438E2,2.264233E1,1.3396323E0],"tree_param":{"num_deleted":"0","num_feature":"10","num_nodes":"25","size_leaf_vector":"1"}},{"base_weights":[2.4464762E-1,2.0627672E-2,8.2236123E-1,5.8531135E-1,-1.31575E-1,5.741708E-1,8.6132306E-1,3.457817E-1,8.745644E-1,-2.2311494E-1,4.4268504E-1,-7.1596146E-2,6.0878724E-1,6.719134E-1,8.90018E-1,2.2077864E-2,9.827781E-2,1.4837033E-1,1.04220904E-1,2.7093058E-2,-4.869359E-2,1.610009E-1,3.8619533E-2,9.353983E-2,-8.841854E-3,1.1568585E-1,2.1683855E-2,1.6703203E-2,1.3368616E-1],"categories":[],"categories_nodes":[],"categories_segments":[],"categories_sizes":[],"default_left":[0,0,0,0,0,0,0,0,0,0,0,0,0,0,0,0,0,0,0,0,0,0,0,0,0,0,0,0,0],"id":9,"left_children":[1,3,5,7,9,11,13,15,17,19,21,-1,23,25,27,-1,-1,-1,-1,-1,-1,-1,-1,-1,-1,-1,-1,-1,-1],"loss_changes":[4.3147357E2,2.0691681E2,7.876343E0,3.468831E1,9.98459E1,5.4263916E0,3.0006104E0,1.7122776E1,3.1949615E0,6.72136E1,2.9825596E1,0E0,1.4107132E0,5.6561317E0,3.5736084E-1,0E0,0E0,0E0,0E0,0E0,0E0,0E0,0E0,0E0,0E0,0E0,0E0,0E0,0E0],"parents":[2147483647,0,0,1,1,2,2,3,3,4,4,5,5,6,6,7,7,8,8,9,9,10,10,12,12,13,13,14,14],"right_children":[2,4,6,8,10,12,14,16,18,20,22,-1,24,26,28,-1,-1,-1,-1,-1,-1,-1,-1,-1,-1,-1,-1,-1,-1],"split_conditions":[1.435E1,2.2524178E0,2.54E1,2.222E0,1.0534E1,8.875E-1,2.35E1,1.912E3,1.078E0,9.5E0,3.5875446E1,-7.1596146E-2,2.48E1,1.471E0,2.08E2,2.2077864E-2,9.827781E-2,1.4837033E-1,1.04220904E-1,2.7093058E-2,-4.869359E-2,1.610009E-1,3.8619533E-2,9.353983E-2,-8.841854E-3,1.1568585E-1,2.1683855E-2,1.6703203E-2,1.3368616E-1],"split_indices":[5,0,8,3,3,3,5,6,9,8,0,0,8,9,6,0,0,0,0,0,0,0,0,0,0,0,0,0,0],"split_type":[0,0,0,0,0,0,0,0,0,0,0,0,0,0,0,0,0,0,0,0,0,0,0,0,0,0,0,0,0],"sum_hessian":[3.332831E3,2.4031907E3,9.2964044E2,5.0915433E2,1.8940363E3,1.3075545E2,7.98885E2,2.8110696E2,2.2804736E2,1.6348328E3,2.592035E2,3.2602143E0,1.2749524E2,1.1198839E2,6.868966E2,1.7320624E2,1.0790073E2,1.3343782E2,9.460954E1,3.2794424E2,1.3068884E3,5.6545155E1,2.0265834E2,1.2500436E2,2.4908805E0,9.330089E1,1.8687498E1,1.494131E0,6.8540247E2],"tree_param":{"num_deleted":"0","num_feature":"10","num_nodes":"29","size_leaf_vector":"1"}},{"base_weights":[-2.2199957E-1,1.6607997E-1,-4.8546496E-1,2.2924018E-1,-2.123678E-1,-1.4820965E-1,-5.1301986E-1,3.024359E-1,-2.885345E-4,-2.6034474E-1,5.7837594E-1,-4.7953673E-2,-4.9009368E-1,-3.3838993E-1,-5.426912E-1,4.600486E-3,5.5269744E-2,-1.8677052E-2,3.850466E-2,1.0760086E-2,-5.6027777E-2,1.4840669E-2,1.2718952E-1,-4.585123E-2,2.3368655E-2,-1.42272785E-2,-9.024859E-2,1.2292021E-3,-5.8773253E-2,-7.6253705E-2,-9.454185E-2],"categories":[],"categories_nodes":[],"categories_segments":[],"categories_sizes":[],"default_left":[0,0,0,0,0,0,0,0,0,0,0,0,0,0,0,0,0,0,0,0,0,0,0,0,0,0,0,0,0,0,0],"id":10,"left_children":[1,3,5,7,9,11,13,15,17,19,21,23,25,27,29,-1,-1,-1,-1,-1,-1,-1,-1,-1,-1,-1,-1,-1,-1,-1,-1],"loss_changes":[3.0589764E2,2.9030224E1,1.6337708E1,1.7476772E1,6.867516E0,4.61728E0,8.072815E0,1.4072151E1,8.119628E0,6.3026247E0,1.0880778E0,5.827495E0,1.1729903E0,4.578882E0,3.464508E0,0E0,0E0,0E0,0E0,0E0,0E0,0E0,0E0,0E0,0E0,0E0,0E0,0E0,0E0,0E0,0E0],"parents":[2147483647,0,0,1,1,2,2,3,3,4,4,5,5,6,6,7,7,8,8,9,9,10,10,11,11,12,12,13,13,14,14],"right_children":[2,4,6,8,10,12,14,16,18,20,22,24,26,28,30,-1,-1,-1,-1,-1,-1,-1,-1,-1,-1,-1,-1,-1,-1,-1,-1],"split_conditions":[1.58E1,1.10568E3,4.52E0,1.26E1,1.3527396E2,2.276E1,1.873E0,7.1E0,1.152E0,1.434E0,7.7E0,2.9E0,9.326E3,1.89E1,3.118E1,4.600486E-3,5.5269744E-2,-1.8677052E-2,3.850466E-2,1.0760086E-2,-5.6027777E-2,1.4840669E-2,1.2718952E-1,-4.585123E-2,2.3368655E-2,-1.42272785E-2,-9.024859E-2,1.2292021E-3,-5.8773253E-2,-7.6253705E-2,-9.454185E-2],"split_indices":[8,7,7,8,1,5,3,8,9,3,8,5,4,8,5,0,0,0,0,0,0,0,0,0,0,0,0,0,0,0,0],"split_type":[0,0,0,0,0,0,0,0,0,0,0,0,0,0,0,0,0,0,0,0,0,0,0,0,0,0,0,0,0,0,0],"sum_hessian":[2.987905E3,1.2083654E3,1.7795397E3,1.0364431E3,1.7192215E2,1.3565025E2,1.6438894E3,7.856903E2,2.5075288E2,1.6347179E2,8.450372E0,1.0688093E2,2.8769335E1,2.4283986E2,1.4010496E3,1.5444797E2,6.312423E2,1.6999751E2,8.075537E1,4.1512623E1,1.2195916E2,4.1586766E0,4.291695E0,4.6964603E1,5.9916325E1,7.3448515E0,2.1424482E1,3.2413254E1,2.104266E2,1.0171075E3,3.839421E2],"tree_param":{"num_deleted":"0","num_feature":"10","num_nodes":"31","size_leaf_vector":"1"}},{"base_weights":[-4.8882235E-2,1.0857236E-1,-6.0909325E-1,-4.3175566E-1,4.3279848E-1,1.0538307E-1,-6.129707E-1,-5.9627753E-1,-1.4461242E-1,5.7074517E-1,-2.3398449E-1,-4.425355E-2,7.944412E-2,-3.6503753E-1,-9.306642E-2,-8.991051E-2,4.1464638E-2,-1.0040098E-2,-8.9585595E-2,9.844645E-2,1.179188E-2,-7.7724927E-3,-8.342179E-2,-6.377176E-2,3.676532E-2],"categories":[],"categories_nodes":[],"categories_segments":[],"categories_sizes":[],"default_left":[0,0,0,0,0,0,0,0,0,0,0,0,0,0,0,0,0,0,0,0,0,0,0,0,0],"id":11,"left_children":[1,3,5,7,9,11,13,15,17,19,21,-1,-1,23,-1,-1,-1,-1,-1,-1,-1,-1,-1,-1,-1],"loss_changes":[2.744672E2,4.2588266E2,2.0711975E0,4.2826263E1,1.4002856E2,1.2281702E0,7.071533E-1,1.9425812E0,1.1631132E1,5.285565E1,1.52399645E1,0E0,0E0,1.1479084E0,0E0,0E0,0E0,0E0,0E0,0E0,0E0,0E0,0E0,0E0,0E0],"parents":[2147483647,0,0,1,1,2,2,3,3,4,4,5,5,6,6,7,7,8,8,9,9,10,10,13,13],"right_children":[2,4,6,8,10,12,14,16,18,20,22,-1,-1,24,-1,-1,-1,-1,-1,-1,-1,-1,-1,-1,-1],"split_conditions":[1.366E1,1.46E1,1.314952E2,1.13E1,1.426E3,1.133573E0,1.511E1,4.6349E3,2.1431204E2,4.35E0,4.48176E3,-4.425355E-2,7.944412E-2,8.504E2,-9.306642E-2,-8.991051E-2,4.1464638E-2,-1.0040098E-2,-8.9585595E-2,9.844645E-2,1.179188E-2,-7.7724927E-3,-8.342179E-2,-6.377176E-2,3.676532E-2],"split_indices":[5,8,1,8,6,0,5,4,0,5,7,0,0,8,0,0,0,0,0,0,0,0,0,0,0],"split_type":[0,0,0,0,0,0,0,0,0,0,0,0,0,0,0,0,0,0,0,0,0,0,0,0,0],"sum_hessian":[3.107531E3,2.4268635E3,6.8066766E2,9.097608E2,1.5171027E3,3.2522697E0,6.774154E2,5.767844E2,3.329764E2,1.257404E3,2.596986E2,1.865272E0,1.3869977E0,2.3126696E1,6.542887E2,5.754642E2,1.320255E0,2.863503E2,4.6626087E1,1.0704246E3,1.8697946E2,1.6757457E2,9.212403E1,2.175392E1,1.372777E0],"tree_param":{"num_deleted":"0","num_feature":"10","num_nodes":"25","size_leaf_vector":"1"}},{"base_weights":[2.1949247E-1,1.1186912E-1,7.650064E-1,5.403453E-1,-5.586483E-2,6.263651E-1,1.2429637E-1,3.7634546E-1,6.839215E-1,-1.4144292E-1,6.081083E-1,4.0527073E-1,7.7897733E-1,4.3820515E-2,1.1074442E-1,7.855354E-2,1.1254767E-1,-3.7413765E-2,4.135716E-2,2.8242933E-2,1.1094252E-1,2.3931889E-2,9.883925E-2,1.8400712E-2,1.1923887E-1],"categories":[],"categories_nodes":[],"categories_segments":[],"categories_sizes":[],"default_left":[0,0,0,0,0,0,0,0,0,0,0,0,0,0,0,0,0,0,0,0,0,0,0,0,0],"id":12,"left_children":[1,3,5,7,9,11,-1,13,15,17,19,21,23,-1,-1,-1,-1,-1,-1,-1,-1,-1,-1,-1,-1],"loss_changes":[1.9261128E2,1.9748584E2,3.5879211E0,1.7580215E1,1.1236625E2,5.2842026E0,0E0,1.0608852E1,3.4420624E0,7.90345E1,1.2093567E1,4.536352E0,7.9512787E-1,0E0,0E0,0E0,0E0,0E0,0E0,0E0,0E0,0E0,0E0,0E0,0E0],"parents":[2147483647,0,0,1,1,2,2,3,3,4,4,5,5,7,7,8,8,9,9,10,10,11,11,12,12],"right_children":[2,4,6,8,10,12,-1,14,16,18,20,22,24,-1,-1,-1,-1,-1,-1,-1,-1,-1,-1,-1,-1],"split_conditions":[1.0188E4,3.0086021E0,4.57E4,1.722E3,9.74E-1,9.09E-1,1.2429637E-1,1.006E0,3.52E-1,1.5157701E2,1.73E1,9.98E-1,5.19E-1,4.3820515E-2,1.1074442E-1,7.855354E-2,1.1254767E-1,-3.7413765E-2,4.135716E-2,2.8242933E-2,1.1094252E-1,2.3931889E-2,9.883925E-2,1.8400712E-2,1.1923887E-1],"split_indices":[4,0,4,6,2,2,0,2,2,0,8,9,9,0,0,0,0,0,0,0,0,0,0,0,0],"split_type":[0,0,0,0,0,0,0,0,0,0,0,0,0,0,0,0,0,0,0,0,0,0,0,0,0],"sum_hessian":[3.2831306E3,2.7443057E3,5.388251E2,7.7098315E2,1.9733225E3,1.7682983E2,3.619952E2,3.636E2,4.0738318E2,1.7495511E3,2.237714E2,7.5466034E1,1.013638E2,2.9812988E2,6.547013E1,1.250021E2,2.8238107E2,1.3906277E3,3.5892343E2,5.4717476E1,1.6905391E2,4.018752E1,3.527851E1,2.9658914E0,9.839791E1],"tree_param":{"num_deleted":"0","num_feature":"10","num_nodes":"25","size_leaf_vector":"1"}},{"base_weights":[-2.020185E-1,1.4323716E-1,-4.5793903E-1,-3.0982012E-1,2.0356834E-1,-4.905557E-1,-1.6683275E-1,-4.2522818E-1,-2.5670202E-2,2.6805532E-1,1.4275399E-3,-3.1170952E-1,-5.08344E-1,-4.075255E-2,-5.393369E-1,-6.581902E-2,8.615886E-3,2.594115E-2,-5.1111944E-2,5.309842E-2,1.4207065E-2,-2.8545056E-2,2.5417736E-2,-5.064718E-2,5.2823678E-2,-7.180341E-2,-8.833063E-2,-2.2857942E-2,4.5296453E-2,-8.984786E-2,-2.781999E-2],"categories":[],"categories_nodes":[],"categories_segments":[],"categories_sizes":[],"default_left":[0,0,0,0,0,0,0,0,0,0,0,0,0,0,0,0,0,0,0,0,0,0,0,0,0,0,0,0,0,0,0],"id":13,"left_children":[1,3,5,7,9,11,13,15,17,19,21,23,25,27,29,-1,-1,-1,-1,-1,-1,-1,-1,-1,-1,-1,-1,-1,-1,-1,-1],"loss_changes":[2.5510541E2,3.3725983E1,1.5510223E1,4.691395E0,1.4135872E1,4.339203E0,7.89907E0,7.616997E-1,2.9061756E0,1.2152893E1,8.605115E0,2.6541586E0,2.5554504E0,5.0372767E0,6.010189E-1,0E0,0E0,0E0,0E0,0E0,0E0,0E0,0E0,0E0,0E0,0E0,0E0,0E0,0E0,0E0,0E0],"parents":[2147483647,0,0,1,1,2,2,3,3,4,4,5,5,6,6,7,7,8,8,9,9,10,10,11,11,12,12,13,13,14,14],"right_children":[2,4,6,8,10,12,14,16,18,20,22,24,26,28,30,-1,-1,-1,-1,-1,-1,-1,-1,-1,-1,-1,-1,-1,-1,-1,-1],"split_conditions":[1.6E1,1.7342212E0,7.3909E1,1.061E2,1.26E1,1.87E1,3.029E1,1.7033476E0,4.22E-1,1.1248226E2,1.4589324E1,1.7381995E2,3.118E1,9.67E0,3.6370667E2,-6.581902E-2,8.615886E-3,2.594115E-2,-5.1111944E-2,5.309842E-2,1.4207065E-2,-2.8545056E-2,2.5417736E-2,-5.064718E-2,5.2823678E-2,-7.180341E-2,-8.833063E-2,-2.2857942E-2,4.5296453E-2,-8.984786E-2,-2.781999E-2],"split_indices":[8,0,0,4,8,8,5,0,2,0,0,1,5,5,0,0,0,0,0,0,0,0,0,0,0,0,0,0,0,0,0],"split_type":[0,0,0,0,0,0,0,0,0,0,0,0,0,0,0,0,0,0,0,0,0,0,0,0,0,0,0,0,0,0,0],"sum_hessian":[2.8833381E3,1.2276448E3,1.6556934E3,1.4310074E2,1.084544E3,1.4873331E3,1.6836026E2,1.0081117E2,4.228957E1,8.213652E2,2.6317883E2,1.3840955E2,1.3489236E3,1.27644226E2,4.0716034E1,9.84337E1,2.3774734E0,2.6297522E1,1.5992049E1,5.4735333E2,2.7401184E2,1.22517235E2,1.4066159E2,1.3429582E2,4.113733E0,9.969284E2,3.5199515E2,9.734086E1,3.0303362E1,3.3415543E1,7.3004923E0],"tree_param":{"num_deleted":"0","num_feature":"10","num_nodes":"31","size_leaf_vector":"1"}},{"base_weights":[-4.5740098E-2,9.497724E-2,-5.8386004E-1,-3.7033424E-1,4.0736553E-1,1.1431377E-1,-5.8794415E-1,-5.674757E-1,-1.0188185E-1,5.437126E-1,-1.4894837E-1,-4.1363537E-2,7.578079E-2,-3.4435445E-1,-8.935406E-2,-8.559941E-2,4.111745E-2,-1.150915E-3,-8.53654E-2,8.9391515E-2,-5.8546394E-2,6.661593E-4,-7.791909E-2,-6.0686905E-2,3.5943266E-2],"categories":[],"categories_nodes":[],"categories_segments":[],"categories_sizes":[],"default_left":[0,0,0,0,0,0,0,0,0,0,0,0,0,0,0,0,0,0,0,0,0,0,0,0,0],"id":14,"left_children":[1,3,5,7,9,11,13,15,17,19,21,-1,-1,23,-1,-1,-1,-1,-1,-1,-1,-1,-1,-1,-1],"loss_changes":[2.2873454E2,3.4835318E2,1.9672089E0,5.0767303E1,1.08950516E2,1.0904105E0,6.717529E-1,1.8295593E0,1.7992863E1,5.668872E1,1.6176338E1,0E0,0E0,1.0666461E0,0E0,0E0,0E0,0E0,0E0,0E0,0E0,0E0,0E0,0E0,0E0],"parents":[2147483647,0,0,1,1,2,2,3,3,4,4,5,5,6,6,7,7,8,8,9,9,10,10,13,13],"right_children":[2,4,6,8,10,12,14,16,18,20,22,-1,-1,24,-1,-1,-1,-1,-1,-1,-1,-1,-1,-1,-1],"split_conditions":[1.366E1,1.56E1,1.314952E2,1.14E1,7.4497E2,1.133573E0,1.511E1,4.6349E3,9.48995E0,1.389E1,4.48176E3,-4.1363537E-2,7.578079E-2,8.504E2,-8.935406E-2,-8.559941E-2,4.111745E-2,-1.150915E-3,-8.53654E-2,8.9391515E-2,-5.8546394E-2,6.661593E-4,-7.791909E-2,-6.0686905E-2,3.5943266E-2],"split_indices":[5,8,1,8,7,0,5,4,3,3,7,0,0,8,0,0,0,0,0,0,0,0,0,0,0],"split_type":[0,0,0,0,0,0,0,0,0,0,0,0,0,0,0,0,0,0,0,0,0,0,0,0,0],"sum_hessian":[3.016572E3,2.39242E3,6.2415204E2,9.6071533E2,1.4317047E3,3.1735477E0,6.209785E2,5.524306E2,4.0828476E2,1.150061E3,2.8164365E2,1.7552474E0,1.4183003E0,2.2346336E1,5.9863214E2,5.511063E2,1.3242702E0,3.416436E2,6.6641174E1,1.0899421E3,6.01189E1,2.003898E2,8.125383E1,2.096942E1,1.3769174E0],"tree_param":{"num_deleted":"0","num_feature":"10","num_nodes":"25","size_leaf_vector":"1"}},{"base_weights":[1.979199E-1,1.9942136E-2,6.7124677E-1,4.5095333E-1,-1.1214738E-1,5.77347E-1,7.466233E-1,5.697558E-1,2.3795769E-1,-1.8804613E-1,2.987877E-1,6.5743965E-1,4.526426E-1,5.7509774E-1,1.1550782E-1,9.3274266E-2,6.1578214E-2,-2.5820704E-3,6.0877346E-2,-3.3351313E-2,5.8290027E-2,8.703795E-2,2.7967688E-2,-0E0,9.979484E-2,7.534984E-2,-1.1600444E-2,1.5531823E-3,8.922465E-2],"categories":[],"categories_nodes":[],"categories_segments":[],"categories_sizes":[],"default_left":[0,0,0,0,0,0,0,0,0,0,0,0,0,0,0,0,0,0,0,0,0,0,0,0,0,0,0,0,0],"id":15,"left_children":[1,3,5,7,9,11,13,15,17,19,21,23,25,27,-1,-1,-1,-1,-1,-1,-1,-1,-1,-1,-1,-1,-1,-1,-1],"loss_changes":[2.7114276E2,1.3347777E2,5.2313232E0,1.3565086E1,5.6059994E1,3.2999725E0,9.1085815E-1,2.2993011E0,8.649359E0,3.0135075E1,8.5690975E0,1.2321854E0,4.4330482E0,6.644764E-1,0E0,0E0,0E0,0E0,0E0,0E0,0E0,0E0,0E0,0E0,0E0,0E0,0E0,0E0,0E0],"parents":[2147483647,0,0,1,1,2,2,3,3,4,4,5,5,6,6,7,7,8,8,9,9,10,10,11,11,12,12,13,13],"right_children":[2,4,6,8,10,12,14,16,18,20,22,24,26,28,-1,-1,-1,-1,-1,-1,-1,-1,-1,-1,-1,-1,-1,-1,-1],"split_conditions":[1.435E1,2.5355022E0,1.0188E4,1.635E2,2.2689047E2,8.977289E0,2.721E1,1.5585442E0,3.69E-1,9.62E-1,2.835E2,1.314952E2,1.417E3,2.8E2,1.1550782E-1,9.3274266E-2,6.1578214E-2,-2.5820704E-3,6.0877346E-2,-3.3351313E-2,5.8290027E-2,8.703795E-2,2.7967688E-2,-0E0,9.979484E-2,7.534984E-2,-1.1600444E-2,1.5531823E-3,8.922465E-2],"split_indices":[5,0,4,4,0,0,5,0,2,2,4,1,6,6,0,0,0,0,0,0,0,0,0,0,0,0,0,0,0],"split_type":[0,0,0,0,0,0,0,0,0,0,0,0,0,0,0,0,0,0,0,0,0,0,0,0,0,0,0,0,0],"sum_hessian":[3.2177686E3,2.3401382E3,8.776304E2,5.4798364E2,1.7921544E3,3.990999E2,4.7853046E2,3.493227E2,1.9866092E2,1.5138737E3,2.7828076E2,2.373278E2,1.6177213E2,6.416095E1,4.143695E2,2.5838705E2,9.093564E1,7.9313965E1,1.1934696E2,1.4302141E3,8.365954E1,7.675244E1,2.0152834E2,2.8372178E0,2.3449059E2,1.4817279E2,1.3599331E1,2.4402728E0,6.172068E1],"tree_param":{"num_deleted":"0","num_feature":"10","num_nodes":"29","size_leaf_vector":"1"}},{"base_weights":[-1.8448527E-1,1.2309279E-1,-4.2857036E-1,-2.8073755E-1,1.7422915E-1,-4.621953E-1,-1.3934085E-1,-5.1438082E-2,-5.500728E-1,2.3599331E-1,1.5018755E-2,-2.6842004E-1,-4.9802524E-1,-1.9677835E-2,-5.1454973E-1,-4.9030274E-2,1.3476788E-2,-3.6867454E-3,-8.459763E-2,-7.436125E-4,4.4933993E-2,-1.3710065E-2,3.179264E-2,-5.2762523E-2,6.05478E-3,-8.002552E-2,-6.051234E-2,-2.2129592E-2,3.75724E-2,-8.66951E-2,-2.3810972E-2],"categories":[],"categories_nodes":[],"categories_segments":[],"categories_sizes":[],"default_left":[0,0,0,0,0,0,0,0,0,0,0,0,0,0,0,0,0,0,0,0,0,0,0,0,0,0,0,0,0,0,0],"id":16,"left_children":[1,3,5,7,9,11,13,15,17,19,21,23,25,27,29,-1,-1,-1,-1,-1,-1,-1,-1,-1,-1,-1,-1,-1,-1,-1,-1],"loss_changes":[2.088798E2,2.552015E1,1.4893677E1,8.465976E0,1.0731789E1,9.294006E0,7.320854E0,3.0971675E0,3.7763214E-1,1.2102989E1,6.5170803E0,5.7563505E0,3.3989563E0,4.455522E0,6.3509464E-1,0E0,0E0,0E0,0E0,0E0,0E0,0E0,0E0,0E0,0E0,0E0,0E0,0E0,0E0,0E0,0E0],"parents":[2147483647,0,0,1,1,2,2,3,3,4,4,5,5,6,6,7,7,8,8,9,9,10,10,11,11,12,12,13,13,14,14],"right_children":[2,4,6,8,10,12,14,16,18,20,22,24,26,28,30,-1,-1,-1,-1,-1,-1,-1,-1,-1,-1,-1,-1,-1,-1,-1,-1],"split_conditions":[1.6E1,1.7342212E0,7.3909E1,2.0243E0,1.22E1,1.873E0,3.029E1,5.82E1,1.315337E2,7.1E0,1.5196104E2,1.3882E3,1.608519E1,2.5984E3,3.6370667E2,-4.9030274E-2,1.3476788E-2,-3.6867454E-3,-8.459763E-2,-7.436125E-4,4.4933993E-2,-1.3710065E-2,3.179264E-2,-5.2762523E-2,6.05478E-3,-8.002552E-2,-6.051234E-2,-2.2129592E-2,3.75724E-2,-8.66951E-2,-2.3810972E-2],"split_indices":[8,0,0,3,8,3,5,4,1,8,1,4,0,4,0,0,0,0,0,0,0,0,0,0,0,0,0,0,0,0,0],"split_type":[0,0,0,0,0,0,0,0,0,0,0,0,0,0,0,0,0,0,0,0,0,0,0,0,0,0,0,0,0,0,0],"sum_hessian":[2.7784612E3,1.2295963E3,1.548865E3,1.369724E2,1.0926239E3,1.3861711E3,1.6269386E2,7.547216E1,6.1500233E1,7.860793E2,3.0654462E2,2.1939801E2,1.1667731E3,1.2515149E2,3.7542374E1,2.4937475E1,5.0534683E1,1.9142113E0,5.958602E1,1.6414708E2,6.219322E2,1.9937132E2,1.0717329E2,1.7280869E2,4.658932E1,8.410487E2,3.2572437E2,8.5816864E1,3.933463E1,3.056487E1,6.9775033E0],"tree_param":{"num_deleted":"0","num_feature":"10","num_nodes":"31","size_leaf_vector":"1"}},{"base_weights":[-4.252454E-2,8.4094435E-2,-5.6217206E-1,-4.7626242E-1,3.0186814E-1,-3.7189043E-1,-8.676195E-2,-5.494018E-1,-2.095304E-1,-2.5784558E-1,4.0584442E-1,-4.354495E-1,7.247691E-2,-8.633747E-2,-4.9039662E-2,5.4730526E-3,-5.978206E-2,-9.822858E-3,-8.794947E-2,7.298932E-2,-3.669521E-2,1.0930726E-2,-6.776328E-2],"categories":[],"categories_nodes":[],"categories_segments":[],"categories_sizes":[],"default_left":[0,0,0,0,0,0,0,0,0,0,0,0,0,0,0,0,0,0,0,0,0,0,0],"id":17,"left_children":[1,3,5,7,9,11,-1,13,15,17,19,21,-1,-1,-1,-1,-1,-1,-1,-1,-1,-1,-1],"loss_changes":[1.9231747E2,2.870508E2,1.244461E0,1.2537476E1,9.8792816E1,3.1942215E0,0E0,2.5339203E0,6.8174496E0,1.6692064E1,7.533864E1,5.077343E-1,0E0,0E0,0E0,0E0,0E0,0E0,0E0,0E0,0E0,0E0,0E0],"parents":[2147483647,0,0,1,1,2,2,3,3,4,4,5,5,7,7,8,8,9,9,10,10,11,11],"right_children":[2,4,6,8,10,12,-1,14,16,18,20,22,-1,-1,-1,-1,-1,-1,-1,-1,-1,-1,-1],"split_conditions":[1.366E1,1.26E1,1.78E1,1.13E1,1.9016551E0,1.3789E3,-8.676195E-2,7.31E-1,3.4303E0,2.614E0,1.01E1,1.131E0,7.247691E-2,-8.633747E-2,-4.9039662E-2,5.4730526E-3,-5.978206E-2,-9.822858E-3,-8.794947E-2,7.298932E-2,-3.669521E-2,1.0930726E-2,-6.776328E-2],"split_indices":[5,8,5,8,0,8,0,2,3,3,3,3,0,0,0,0,0,0,0,0,0,0,0],"split_type":[0,0,0,0,0,0,0,0,0,0,0,0,0,0,0,0,0,0,0,0,0,0,0],"sum_hessian":[2.9187175E3,2.3480645E3,5.70653E2,6.5635486E2,1.6917097E3,4.911911E1,5.215339E2,5.131514E2,1.4320343E2,2.6441547E2,1.4272942E3,4.6743042E1,2.376069E0,4.5587787E2,5.727358E1,6.2691395E1,8.051203E1,1.6846545E2,9.5950005E1,1.2702606E3,1.5703366E2,1.0465395E0,4.5696503E1],"tree_param":{"num_deleted":"0","num_feature":"10","num_nodes":"23","size_leaf_vector":"1"}},{"base_weights":[1.7932E-1,1.9919055E-2,6.169197E-1,-9.37817E-2,4.2249432E-1,4.333523E-1,6.6018176E-1,4.5868333E-2,-2.7935004E-1,1.7968017E-1,5.2739435E-1,5.9712577E-1,3.481742E-1,3.5042313E-1,6.7901796E-1,-1.0968467E-2,4.1723873E-2,-5.2008245E-2,8.219363E-2,5.6375127E-2,-1.4192604E-2,8.066929E-2,-5.0810616E-2,9.398624E-2,1.8725818E-2,4.0477317E-2,9.239218E-2,6.1293468E-2,-6.334786E-2,8.705129E-2,1.05555005E-1],"categories":[],"categories_nodes":[],"categories_segments":[],"categories_sizes":[],"default_left":[0,0,0,0,0,0,0,0,0,0,0,0,0,0,0,0,0,0,0,0,0,0,0,0,0,0,0,0,0,0,0],"id":18,"left_children":[1,3,5,7,9,11,13,15,17,19,21,23,25,27,29,-1,-1,-1,-1,-1,-1,-1,-1,-1,-1,-1,-1,-1,-1,-1,-1],"loss_changes":[2.1908997E2,1.0563902E2,5.9792786E0,4.6673164E1,1.2686501E1,1.808548E0,3.356659E0,2.847563E1,4.3452904E1,8.528477E0,3.56987E0,5.149708E-1,1.981576E0,2.2822227E0,5.9750366E-1,0E0,0E0,0E0,0E0,0E0,0E0,0E0,0E0,0E0,0E0,0E0,0E0,0E0,0E0,0E0,0E0],"parents":[2147483647,0,0,1,1,2,2,3,3,4,4,5,5,6,6,7,7,8,8,9,9,10,10,11,11,12,12,13,13,14,14],"right_children":[2,4,6,8,10,12,14,16,18,20,22,24,26,28,30,-1,-1,-1,-1,-1,-1,-1,-1,-1,-1,-1,-1,-1,-1,-1,-1],"split_conditions":[1.435E1,1.391E3,3.56E1,1.92E1,2.49E-1,3.686E2,1.868E1,9.422498E1,9.58E-1,1.3786497E0,6.641E2,1.2654E2,2.551859E2,2.4348E3,3.029E1,-1.0968467E-2,4.1723873E-2,-5.2008245E-2,8.219363E-2,5.6375127E-2,-1.4192604E-2,8.066929E-2,-5.0810616E-2,9.398624E-2,1.8725818E-2,4.0477317E-2,9.239218E-2,6.1293468E-2,-6.334786E-2,8.705129E-2,1.05555005E-1],"split_indices":[5,6,8,8,2,4,5,0,2,0,8,5,1,8,5,0,0,0,0,0,0,0,0,0,0,0,0,0,0,0,0],"split_type":[0,0,0,0,0,0,0,0,0,0,0,0,0,0,0,0,0,0,0,0,0,0,0,0,0,0,0,0,0,0,0],"sum_hessian":[3.1401682E3,2.3034343E3,8.3673395E2,1.7971458E3,5.0628854E2,1.6422942E2,6.725045E2,1.025996E3,7.711497E2,1.5466394E2,3.5162457E2,5.1676125E1,1.125533E2,4.110207E1,6.3140247E2,6.790772E2,3.469188E2,7.142663E2,5.6883408E1,8.995797E1,6.470597E1,3.483155E2,3.309084E0,4.7828693E1,3.8474298E0,9.047713E1,2.2076172E1,3.921999E1,1.882082E0,1.3695367E2,4.944488E2],"tree_param":{"num_deleted":"0","num_feature":"10","num_nodes":"31","size_leaf_vector":"1"}},{"base_weights":[-1.677972E-1,1.097592E-1,-4.0203723E-1,-2.51579E-1,1.5334205E-1,-4.3625936E-1,-1.1995147E-1,-2.8360061E-2,-5.28024E-1,1.869206E-1,-3.6385942E-2,-2.3958321E-1,-4.7373387E-1,-4.8626665E-2,-5.2292657E-1,-7.117096E-2,7.7896975E-3,-8.364629E-2,-1.3717604E-4,3.471744E-2,-6.054818E-3,-1.4584677E-2,4.2767122E-2,-4.8533827E-2,9.449118E-3,-7.663423E-2,-5.6461092E-2,4.991615E-2,-2.0625917E-2,6.4466246E-3,-8.42486E-2],"categories":[],"categories_nodes":[],"categories_segments":[],"categories_sizes":[],"default_left":[0,0,0,0,0,0,0,0,0,0,0,0,0,0,0,0,0,0,0,0,0,0,0,0,0,0,0,0,0,0,0],"id":19,"left_children":[1,3,5,7,9,11,13,15,17,19,21,23,25,27,29,-1,-1,-1,-1,-1,-1,-1,-1,-1,-1,-1,-1,-1,-1,-1,-1],"loss_changes":[1.7428156E2,1.93971E1,1.3870285E1,8.098247E0,7.0161915E0,9.246857E0,4.4999843E0,2.8026266E0,8.631935E-1,9.4770355E0,3.2869017E0,5.4470596E0,3.452057E0,4.77133E0,6.194501E-1,0E0,0E0,0E0,0E0,0E0,0E0,0E0,0E0,0E0,0E0,0E0,0E0,0E0,0E0,0E0,0E0],"parents":[2147483647,0,0,1,1,2,2,3,3,4,4,5,5,6,6,7,7,8,8,9,9,10,10,11,11,12,12,13,13,14,14],"right_children":[2,4,6,8,10,12,14,16,18,20,22,24,26,28,30,-1,-1,-1,-1,-1,-1,-1,-1,-1,-1,-1,-1,-1,-1,-1,-1],"split_conditions":[1.6E1,1.7342212E0,7.3909E1,2.0243E0,1.0534E1,1.873E0,5.084E2,8.4E0,3.065E0,1.33E1,1.42E1,1.3882E3,1.608519E1,2.58E2,4.65625E0,-7.117096E-2,7.7896975E-3,-8.364629E-2,-1.3717604E-4,3.471744E-2,-6.054818E-3,-1.4584677E-2,4.2767122E-2,-4.8533827E-2,9.449118E-3,-7.663423E-2,-5.6461092E-2,4.991615E-2,-2.0625917E-2,6.4466246E-3,-8.42486E-2],"split_indices":[8,0,0,3,3,3,8,8,9,8,8,4,0,6,3,0,0,0,0,0,0,0,0,0,0,0,0,0,0,0,0],"split_type":[0,0,0,0,0,0,0,0,0,0,0,0,0,0,0,0,0,0,0,0,0,0,0,0,0,0,0,0,0,0,0],"sum_hessian":[2.6768364E3,1.225431E3,1.4514054E3,1.3062248E2,1.0948086E3,1.2930834E3,1.5832207E2,7.3688614E1,5.6933872E1,9.3065546E2,1.6415312E2,2.0974437E2,1.083339E3,1.3662886E2,2.1693209E1,9.931902E0,6.3756714E1,5.361568E1,3.3181913E0,7.7853186E2,1.5212363E2,1.3946498E2,2.4688148E1,1.6432918E2,4.5415195E1,7.771021E2,3.062369E2,2.4571953E1,1.120569E2,1.2101526E0,2.0483057E1],"tree_param":{"num_deleted":"0","num_feature":"10","num_nodes":"31","size_leaf_vector":"1"}},{"base_weights":[-4.0376633E-2,9.531778E-2,-4.6227187E-1,-3.2537505E-1,3.8328773E-1,-2.1956718E-1,-5.523372E-1,-5.28021E-1,-8.803349E-2,5.001985E-1,-1.1333265E-1,5.0310012E-2,-6.558785E-1,4.301458E-2,-8.335205E-2,-8.324452E-2,-4.2862847E-2,-9.249489E-4,-7.976987E-2,8.329054E-2,-5.0837263E-2,4.6531025E-2,-4.2578697E-2,-5.518897E-2,4.926347E-2,-5.5257138E-2,-1.0693871E-1,4.4832066E-2,-3.1087885E-2],"categories":[],"categories_nodes":[],"categories_segments":[],"categories_sizes":[],"default_left":[0,0,0,0,0,0,0,0,0,0,0,0,0,0,0,0,0,0,0,0,0,0,0,0,0,0,0,0,0],"id":20,"left_children":[1,3,5,7,9,11,13,15,17,19,21,23,25,27,-1,-1,-1,-1,-1,-1,-1,-1,-1,-1,-1,-1,-1,-1,-1],"loss_changes":[1.6155258E2,2.5890656E2,1.4691788E1,4.1618088E1,7.380156E1,2.2438753E1,1.0927277E0,2.6527405E0,1.4567641E1,4.7871765E1,1.7737349E1,1.4054858E1,5.589142E-1,4.197366E-1,0E0,0E0,0E0,0E0,0E0,0E0,0E0,0E0,0E0,0E0,0E0,0E0,0E0,0E0,0E0],"parents":[2147483647,0,0,1,1,2,2,3,3,4,4,5,5,6,6,7,7,8,8,9,9,10,10,11,11,12,12,13,13],"right_children":[2,4,6,8,10,12,14,16,18,20,22,24,26,28,-1,-1,-1,-1,-1,-1,-1,-1,-1,-1,-1,-1,-1,-1,-1],"split_conditions":[6.14E0,1.56E1,1.511E1,1.13E1,7.4497E2,8.39E-1,1.314952E2,7.31E-1,9.48995E0,1.21777E1,2.49E-1,9.89E1,4.103E2,5.86E-1,-8.335205E-2,-8.324452E-2,-4.2862847E-2,-9.249489E-4,-7.976987E-2,8.329054E-2,-5.0837263E-2,4.6531025E-2,-4.2578697E-2,-5.518897E-2,4.926347E-2,-5.5257138E-2,-1.0693871E-1,4.4832066E-2,-3.1087885E-2],"split_indices":[5,8,5,8,7,2,1,2,3,3,2,8,4,2,0,0,0,0,0,0,0,0,0,0,0,0,0,0,0],"split_type":[0,0,0,0,0,0,0,0,0,0,0,0,0,0,0,0,0,0,0,0,0,0,0,0,0,0,0,0,0],"sum_hessian":[2.8177566E3,2.1330225E3,6.847342E2,8.665215E2,1.2665009E3,1.8748715E2,4.97247E2,4.6587732E2,4.0064413E2,1.0253154E3,2.4118542E2,1.16788605E2,7.0698555E1,2.4770386E0,4.9477E2,4.1655817E2,4.9319168E1,3.4014612E2,6.049801E1,9.6291425E2,6.240123E1,6.8593285E1,1.7259213E2,4.6242313E1,7.0546295E1,1.4465335E1,5.623322E1,1.2302988E0,1.2467399E0],"tree_param":{"num_deleted":"0","num_feature":"10","num_nodes":"29","size_leaf_vector":"1"}},{"base_weights":[1.6304033E-1,1.9966858E-2,5.7150584E-1,3.530747E-1,-9.711843E-2,3.9031643E-1,6.162957E-1,2.568786E-1,5.315918E-1,4.1331482E-1,-1.4556578E-1,2.7130952E-1,4.8331285E-1,4.0978006E-1,6.485984E-1,6.841002E-2,2.0876382E-2,3.257079E-2,8.309103E-2,-3.86472E-2,6.64674E-2,-3.1725384E-2,4.5072213E-2,-4.103583E-2,5.6420587E-2,7.767648E-2,2.336777E-2,7.579299E-2,1.0738597E-3,-0E0,9.751695E-2],"categories":[],"categories_nodes":[],"categories_segments":[],"categories_sizes":[],"default_left":[0,0,0,0,0,0,0,0,0,0,0,0,0,0,0,0,0,0,0,0,0,0,0,0,0,0,0,0,0,0,0],"id":21,"left_children":[1,3,5,7,9,11,13,15,17,19,21,23,25,27,29,-1,-1,-1,-1,-1,-1,-1,-1,-1,-1,-1,-1,-1,-1,-1,-1],"loss_changes":[1.7861534E2,8.8504265E1,5.8533936E0,9.78334E0,4.1604065E1,1.4669342E0,3.5779266E0,8.904663E0,1.1190071E0,3.163313E0,4.5256687E1,4.589041E0,7.722359E-1,3.453045E0,4.9568176E-1,0E0,0E0,0E0,0E0,0E0,0E0,0E0,0E0,0E0,0E0,0E0,0E0,0E0,0E0,0E0,0E0],"parents":[2147483647,0,0,1,1,2,2,3,3,4,4,5,5,6,6,7,7,8,8,9,9,10,10,11,11,12,12,13,13,14,14],"right_children":[2,4,6,8,10,12,14,16,18,20,22,24,26,28,30,-1,-1,-1,-1,-1,-1,-1,-1,-1,-1,-1,-1,-1,-1,-1,-1],"split_conditions":[1.435E1,3.0086021E0,3.56E1,1.938E3,7.1E0,8.16E2,2.35E1,9.6E-1,5.1E-2,6.9E-1,2.984688E2,1.935954E1,9.739E1,1.408E0,2.08E2,6.841002E-2,2.0876382E-2,3.257079E-2,8.309103E-2,-3.86472E-2,6.64674E-2,-3.1725384E-2,4.5072213E-2,-4.103583E-2,5.6420587E-2,7.767648E-2,2.336777E-2,7.579299E-2,1.0738597E-3,-0E0,9.751695E-2],"split_indices":[5,0,8,6,8,6,5,5,2,5,0,0,5,9,6,0,0,0,0,0,0,0,0,0,0,0,0,0,0,0,0],"split_type":[0,0,0,0,0,0,0,0,0,0,0,0,0,0,0,0,0,0,0,0,0,0,0,0,0,0,0,0,0,0,0],"sum_hessian":[3.0557605E3,2.2648076E3,7.9095294E2,5.8820013E2,1.6766074E3,1.6106287E2,6.298901E2,3.8576443E2,2.0243571E2,1.4385442E2,1.5327529E3,7.4559586E1,8.650328E1,8.932011E1,5.4056995E2,1.4083333E2,2.449311E2,1.5151615E1,1.872841E2,5.3246675E0,1.3852974E2,1.3364662E3,1.962868E2,1.1356492E1,6.3203094E1,7.692575E1,9.577526E0,7.158172E1,1.7738394E1,1.3523804E0,5.392176E2],"tree_param":{"num_deleted":"0","num_feature":"10","num_nodes":"31","size_leaf_vector":"1"}},{"base_weights":[-1.5169843E-1,9.856412E-2,-3.7658948E-1,-2.2745231E-1,1.3622688E-1,-4.0078253E-1,7.4171885E-3,-1.3197273E-2,-5.0886923E-1,-4.1371766E-2,1.6796494E-1,-2.0816697E-1,-4.3617523E-1,1.4507261E-1,-4.3769345E-1,-6.7633145E-2,9.363166E-3,-8.103615E-2,-0E0,4.937866E-3,-4.8967224E-2,4.0042773E-2,8.692312E-3,-3.834085E-2,3.5298783E-2,-7.345151E-2,-4.9148764E-2,6.748582E-2,-1.0240264E-2,-7.1986854E-2,1.2656459E-2],"categories":[],"categories_nodes":[],"categories_segments":[],"categories_sizes":[],"default_left":[0,0,0,0,0,0,0,0,0,0,0,0,0,0,0,0,0,0,0,0,0,0,0,0,0,0,0,0,0,0,0],"id":22,"left_children":[1,3,5,7,9,11,13,15,17,19,21,23,25,27,29,-1,-1,-1,-1,-1,-1,-1,-1,-1,-1,-1,-1,-1,-1,-1,-1],"loss_changes":[1.4545403E2,1.5078418E1,1.2688095E1,7.6040244E0,6.2184544E0,8.483322E0,5.144939E0,2.5600312E0,8.6028767E-1,3.6019583E0,1.0095293E1,4.393794E0,5.8644867E0,4.300101E0,5.566008E-1,0E0,0E0,0E0,0E0,0E0,0E0,0E0,0E0,0E0,0E0,0E0,0E0,0E0,0E0,0E0,0E0],"parents":[2147483647,0,0,1,1,2,2,3,3,4,4,5,5,6,6,7,7,8,8,9,9,10,10,11,11,12,12,13,13,14,14],"right_children":[2,4,6,8,10,12,14,16,18,20,22,24,26,28,30,-1,-1,-1,-1,-1,-1,-1,-1,-1,-1,-1,-1,-1,-1,-1,-1],"split_conditions":[1.6E1,1.7342212E0,1.6151561E2,2.0243E0,7.1E0,1.873E0,3.568E1,8.4E0,3.065E0,5.49E0,1.11E1,9.75172E0,1.608519E1,1.0534E1,5.2233887E2,-6.7633145E-2,9.363166E-3,-8.103615E-2,-0E0,4.937866E-3,-4.8967224E-2,4.0042773E-2,8.692312E-3,-3.834085E-2,3.5298783E-2,-7.345151E-2,-4.9148764E-2,6.748582E-2,-1.0240264E-2,-7.1986854E-2,1.2656459E-2],"split_indices":[8,0,0,3,8,3,5,8,9,3,8,0,0,3,0,0,0,0,0,0,0,0,0,0,0,0,0,0,0,0,0],"split_type":[0,0,0,0,0,0,0,0,0,0,0,0,0,0,0,0,0,0,0,0,0,0,0,0,0,0,0,0,0,0,0],"sum_hessian":[2.5805752E3,1.221712E3,1.358863E3,1.2520232E2,1.0965098E3,1.2784891E3,8.0373924E1,7.247389E1,5.2728416E1,1.6567479E2,9.3083496E2,2.0102902E2,1.0774601E3,6.2590065E1,1.7783861E1,9.409191E0,6.3064705E1,4.9504406E1,3.2240105E0,1.3255043E2,3.312436E1,4.8799786E2,4.428371E2,1.825727E2,1.8456327E1,7.1634015E2,3.6111993E2,2.5049316E1,3.754075E1,1.6779943E1,1.0039186E0],"tree_param":{"num_deleted":"0","num_feature":"10","num_nodes":"31","size_leaf_vector":"1"}},{"base_weights":[-3.933029E-2,8.404598E-2,-4.432033E-1,-3.0431634E-1,3.4431207E-1,-2.1553928E-1,-5.348672E-1,-5.088987E-1,-7.606111E-2,4.642605E-1,-4.094945E-2,3.3299655E-2,-6.264006E-1,5.2390475E-2,-5.384673E-1,-8.126555E-2,-4.446682E-2,1.4055298E-5,-7.657829E-2,7.6537095E-2,-6.743338E-2,1.3722009E-2,-6.0094167E-2,-5.2555826E-2,4.225705E-2,-1.01859495E-1,5.1277815E-3,4.3734346E-2,-2.8950239E-2,-5.3563595E-2,-8.209949E-2],"categories":[],"categories_nodes":[],"categories_segments":[],"categories_sizes":[],"default_left":[0,0,0,0,0,0,0,0,0,0,0,0,0,0,0,0,0,0,0,0,0,0,0,0,0,0,0,0,0,0,0],"id":23,"left_children":[1,3,5,7,9,11,13,15,17,19,21,23,25,27,29,-1,-1,-1,-1,-1,-1,-1,-1,-1,-1,-1,-1,-1,-1,-1,-1],"loss_changes":[1.3524733E2,2.1034586E2,1.2948601E1,3.886016E1,5.7652237E1,1.9115116E1,1.0588226E0,2.6663666E0,1.3195976E1,4.0404175E1,1.4271383E1,1.1396521E1,2.560131E0,3.8077205E-1,2.4003601E-1,0E0,0E0,0E0,0E0,0E0,0E0,0E0,0E0,0E0,0E0,0E0,0E0,0E0,0E0,0E0,0E0],"parents":[2147483647,0,0,1,1,2,2,3,3,4,4,5,5,6,6,7,7,8,8,9,9,10,10,11,11,12,12,13,13,14,14],"right_children":[2,4,6,8,10,12,14,16,18,20,22,24,26,28,30,-1,-1,-1,-1,-1,-1,-1,-1,-1,-1,-1,-1,-1,-1,-1,-1],"split_conditions":[6.14E0,1.56E1,1.511E1,1.13E1,1.222E3,8.39E-1,1.314952E2,6.81E-1,9.48995E0,1.389E1,1.938E3,9.89E1,2.968E0,5.86E-1,1.635E0,-8.126555E-2,-4.446682E-2,1.4055298E-5,-7.657829E-2,7.6537095E-2,-6.743338E-2,1.3722009E-2,-6.0094167E-2,-5.2555826E-2,4.225705E-2,-1.01859495E-1,5.1277815E-3,4.3734346E-2,-2.8950239E-2,-5.3563595E-2,-8.209949E-2],"split_indices":[5,8,5,8,6,2,1,2,3,3,6,8,9,2,3,0,0,0,0,0,0,0,0,0,0,0,0,0,0,0,0],"split_type":[0,0,0,0,0,0,0,0,0,0,0,0,0,0,0,0,0,0,0,0,0,0,0,0,0,0,0,0,0,0,0],"sum_hessian":[2.710049E3,2.0769216E3,6.331276E2,8.3308734E2,1.2438342E3,1.8397816E2,4.4914948E2,4.3779764E2,3.9528973E2,9.484046E2,2.9542957E2,1.1557466E2,6.84035E1,2.4022522E0,4.4674722E2,3.7604382E2,6.1753803E1,3.3784048E2,5.744924E1,9.0390906E2,4.449556E1,2.1681429E2,7.861528E1,4.4940807E1,7.063385E1,6.3441322E1,4.9621778E0,1.2323518E0,1.1699005E0,2.5185383E1,4.2156183E2],"tree_param":{"num_deleted":"0","num_feature":"10","num_nodes":"31","size_leaf_vector":"1"}},{"base_weights":[1.4859493E-1,2.0279953E-2,5.319703E-1,3.204563E-1,-8.574774E-2,4.2948756E-1,6.220413E-1,4.2380762E-1,1.3066182E-1,7.1946144E-2,-2.150372E-1,5.4399323E-1,3.3722356E-1,4.3146023E-1,9.762522E-2,9.186753E-2,5.586043E-2,1.3517843E-3,5.750631E-2,-1.0037986E-2,3.4913108E-2,-4.2352077E-2,1.2503129E-2,8.3782844E-2,-5.787839E-2,5.8195584E-2,9.806311E-3,-1.09187626E-4,6.772008E-2],"categories":[],"categories_nodes":[],"categories_segments":[],"categories_sizes":[],"default_left":[0,0,0,0,0,0,0,0,0,0,0,0,0,0,0,0,0,0,0,0,0,0,0,0,0,0,0,0,0],"id":24,"left_children":[1,3,5,7,9,11,13,15,17,19,21,23,25,27,-1,-1,-1,-1,-1,-1,-1,-1,-1,-1,-1,-1,-1,-1,-1],"loss_changes":[1.4603546E2,7.097767E1,6.2332764E0,1.1252571E1,3.363503E1,3.2982101E0,1.477356E0,3.0881958E0,6.3626943E0,1.6647865E1,1.8266518E1,2.5436401E0,2.697279E0,5.4506016E-1,0E0,0E0,0E0,0E0,0E0,0E0,0E0,0E0,0E0,0E0,0E0,0E0,0E0,0E0,0E0],"parents":[2147483647,0,0,1,1,2,2,3,3,4,4,5,5,6,6,7,7,8,8,9,9,10,10,11,11,12,12,13,13],"right_children":[2,4,6,8,10,12,14,16,18,20,22,24,26,28,-1,-1,-1,-1,-1,-1,-1,-1,-1,-1,-1,-1,-1,-1,-1],"split_conditions":[1.435E1,3.0086021E0,1.0188E4,1.813E2,1.39E1,3.4841287E0,2.721E1,6.559398E-1,2.47E0,1.5441122E2,4.35E0,1.3789E3,1.426E3,2.8E2,9.762522E-2,9.186753E-2,5.586043E-2,1.3517843E-3,5.750631E-2,-1.0037986E-2,3.4913108E-2,-4.2352077E-2,1.2503129E-2,8.3782844E-2,-5.787839E-2,5.8195584E-2,9.806311E-3,-1.09187626E-4,6.772008E-2],"split_indices":[5,0,4,4,8,0,5,0,5,1,5,8,6,6,0,0,0,0,0,0,0,0,0,0,0,0,0,0,0],"split_type":[0,0,0,0,0,0,0,0,0,0,0,0,0,0,0,0,0,0,0,0,0,0,0,0,0,0,0,0,0],"sum_hessian":[2.9681958E3,2.225644E3,7.425519E2,5.801297E2,1.6455143E3,3.532596E2,3.8929227E2,3.736618E2,2.064679E2,7.413752E2,9.0413904E2,1.5277718E2,2.0048244E2,5.5747494E1,3.3354477E2,7.492654E1,2.987353E2,1.4104124E2,6.542665E1,3.9812192E2,3.4325327E2,7.380869E2,1.6605214E2,1.5131415E2,1.463027E0,1.6791492E2,3.2567524E1,2.3306189E0,5.3416874E1],"tree_param":{"num_deleted":"0","num_feature":"10","num_nodes":"29","size_leaf_vector":"1"}},{"base_weights":[-1.371152E-1,-8.3085425E-2,-4.3206415E-1,-1.4575633E-1,7.636087E-2,-2.628797E-1,-5.307948E-1,-5.2893035E-2,-2.6187962E-1,1.8179592E-1,1.6059013E-2,1.4639805E-1,-3.138005E-1,-3.342649E-1,-5.5537516E-1,-2.9382635E-2,1.23114055E-2,-5.471621E-3,-4.834202E-2,3.695799E-2,-1.0696862E-2,-4.136937E-3,3.9932087E-2,7.573569E-2,-5.103898E-2,-5.9386127E-2,-4.5701293E-3,-6.818142E-2,-0E0,-8.394856E-2,3.6749947E-3],"categories":[],"categories_nodes":[],"categories_segments":[],"categories_sizes":[],"default_left":[0,0,0,0,0,0,0,0,0,0,0,0,0,0,0,0,0,0,0,0,0,0,0,0,0,0,0,0,0,0,0],"id":25,"left_children":[1,3,5,7,9,11,13,15,17,19,21,23,25,27,29,-1,-1,-1,-1,-1,-1,-1,-1,-1,-1,-1,-1,-1,-1,-1,-1],"loss_changes":[3.9574947E1,2.109555E1,6.0710754E0,1.62725E1,3.7617426E0,3.155181E0,7.026825E-1,1.6342106E1,9.089233E0,3.5829277E0,4.205908E0,3.382152E0,2.9775448E0,1.3160253E0,6.0359955E-1,0E0,0E0,0E0,0E0,0E0,0E0,0E0,0E0,0E0,0E0,0E0,0E0,0E0,0E0,0E0,0E0],"parents":[2147483647,0,0,1,1,2,2,3,3,4,4,5,5,6,6,7,7,8,8,9,9,10,10,11,11,12,12,13,13,14,14],"right_children":[2,4,6,8,10,12,14,16,18,20,22,24,26,28,30,-1,-1,-1,-1,-1,-1,-1,-1,-1,-1,-1,-1,-1,-1,-1,-1],"split_conditions":[2.35E1,4.294952E1,4.1745E3,2.511E2,5.434E0,1.4598E0,3.118E1,4.623345E0,1.848E0,5.11E2,3.556712E2,1.8E3,1.7859758E2,1.008E0,5.2233887E2,-2.9382635E-2,1.23114055E-2,-5.471621E-3,-4.834202E-2,3.695799E-2,-1.0696862E-2,-4.136937E-3,3.9932087E-2,7.573569E-2,-5.103898E-2,-5.9386127E-2,-4.5701293E-3,-6.818142E-2,-0E0,-8.394856E-2,3.6749947E-3],"split_indices":[5,0,4,4,3,3,5,0,3,6,1,6,1,9,0,0,0,0,0,0,0,0,0,0,0,0,0,0,0,0,0],"split_type":[0,0,0,0,0,0,0,0,0,0,0,0,0,0,0,0,0,0,0,0,0,0,0,0,0,0,0,0,0,0,0],"sum_hessian":[2.4891016E3,2.1061855E3,3.82916E2,1.5124935E3,5.936919E2,1.4418285E2,2.3873314E2,8.4251227E2,6.699813E2,2.1393988E2,3.7975204E2,1.5321542E1,1.288613E2,3.0237572E1,2.0849556E2,4.0901987E2,4.3349243E2,1.4261919E2,5.273621E2,1.7080132E2,4.3138554E1,3.2452042E2,5.523164E1,8.897507E0,6.4240355E0,9.901902E1,2.9842283E1,2.180353E1,8.434043E0,2.0720769E2,1.2878783E0],"tree_param":{"num_deleted":"0","num_feature":"10","num_nodes":"31","size_leaf_vector":"1"}},{"base_weights":[-3.8225885E-2,-4.680428E-1,6.5224804E-2,-5.0151783E-1,-2.3312715E-1,1.6212118E-1,-4.8293018E-1,-5.327815E-1,-3.3854657E-1,1.0164621E-1,-3.9596635E-1,2.3000386E-1,-5.266132E-1,-1.8275107E-1,-5.5916405E-1,-8.068158E-2,5.733824E-2,-3.5155464E-2,-7.39034E-2,4.450307E-2,-6.679747E-2,-8.609272E-2,-1.9654116E-2,-2.0376235E-2,4.8234258E-2,-3.0654093E-2,-8.31603E-2,-1.0556269E-2,-6.933815E-2,-8.577818E-2,-5.0203513E-2],"categories":[],"categories_nodes":[],"categories_segments":[],"categories_sizes":[],"default_left":[0,0,0,0,0,0,0,0,0,0,0,0,0,0,0,0,0,0,0,0,0,0,0,0,0,0,0,0,0,0,0],"id":26,"left_children":[1,3,5,7,9,11,13,15,17,19,21,23,25,27,29,-1,-1,-1,-1,-1,-1,-1,-1,-1,-1,-1,-1,-1,-1,-1,-1],"loss_changes":[1.1605995E2,3.674492E0,1.1185176E2,1.7994614E0,3.776744E0,8.386325E1,6.960251E0,2.1337204E0,9.3276215E-1,2.7458892E0,1.9417071E0,5.471109E1,1.139286E0,1.9955902E0,2.4164581E-1,0E0,0E0,0E0,0E0,0E0,0E0,0E0,0E0,0E0,0E0,0E0,0E0,0E0,0E0,0E0,0E0],"parents":[2147483647,0,0,1,1,2,2,3,3,4,4,5,5,6,6,7,7,8,8,9,9,10,10,11,11,12,12,13,13,14,14],"right_children":[2,4,6,8,10,12,14,16,18,20,22,24,26,28,30,-1,-1,-1,-1,-1,-1,-1,-1,-1,-1,-1,-1,-1,-1,-1,-1],"split_conditions":[1.18E1,1.12E1,9.65E-1,6.81E-1,8.74E-1,1.6445E4,2.33E1,4.1745E3,3.3693203E1,4.833E0,3.69E-1,2.739874E0,1.48E-1,1.471E0,8.167584E1,-8.068158E-2,5.733824E-2,-3.5155464E-2,-7.39034E-2,4.450307E-2,-6.679747E-2,-8.609272E-2,-1.9654116E-2,-2.0376235E-2,4.8234258E-2,-3.0654093E-2,-8.31603E-2,-1.0556269E-2,-6.933815E-2,-8.577818E-2,-5.0203513E-2],"split_indices":[8,8,2,2,9,4,8,4,0,3,2,0,2,9,0,0,0,0,0,0,0,0,0,0,0,0,0,0,0,0,0],"split_type":[0,0,0,0,0,0,0,0,0,0,0,0,0,0,0,0,0,0,0,0,0,0,0,0,0,0,0,0,0,0,0],"sum_hessian":[2.6058713E3,5.0434338E2,2.1015278E3,4.3907993E2,6.526346E1,1.7871989E3,3.1432898E2,3.640838E2,7.499611E1,2.1401863E1,4.38616E1,1.6281985E3,1.590004E2,6.530192E1,2.4902707E2,3.62996E2,1.0878184E0,4.8146294E1,2.6849813E1,1.6585596E1,4.8162675E0,2.4615103E1,1.9246494E1,3.2550217E2,1.3026963E3,1.4234681E1,1.4476572E2,4.8616653E1,1.6685265E1,2.3235078E2,1.6676292E1],"tree_param":{"num_deleted":"0","num_feature":"10","num_nodes":"31","size_leaf_vector":"1"}},{"base_weights":[1.339718E-1,6.789682E-2,5.514636E-1,-4.6808187E-2,3.18484E-1,2.1331884E-1,5.741943E-1,-1.3201736E-1,2.9400128E-1,1.5588926E-1,4.4155592E-1,-6.850638E-2,4.0622368E-1,2.2473182E-1,5.890413E-1,-2.6462011E-2,4.3780416E-2,1.2341272E-1,2.4033101E-2,5.1471982E-2,-1.1523792E-2,4.158009E-2,7.755619E-2,-3.543928E-2,5.933216E-2,-1.3268745E-2,6.895601E-2,5.9694525E-2,-2.9307688E-2,7.784279E-2,9.443184E-2],"categories":[],"categories_nodes":[],"categories_segments":[],"categories_sizes":[],"default_left":[0,0,0,0,0,0,0,0,0,0,0,0,0,0,0,0,0,0,0,0,0,0,0,0,0,0,0,0,0,0,0],"id":27,"left_children":[1,3,5,7,9,11,13,15,17,19,21,23,25,27,29,-1,-1,-1,-1,-1,-1,-1,-1,-1,-1,-1,-1,-1,-1,-1,-1],"loss_changes":[7.9562744E1,7.182594E1,2.7068787E0,4.9844814E1,1.5502464E1,1.6276819E0,1.5631943E0,2.5930372E1,2.3919548E1,1.4958977E1,5.1562347E0,1.1828543E0,5.760691E-1,1.5225457E0,2.29599E-1,0E0,0E0,0E0,0E0,0E0,0E0,0E0,0E0,0E0,0E0,0E0,0E0,0E0,0E0,0E0,0E0],"parents":[2147483647,0,0,1,1,2,2,3,3,4,4,5,5,6,6,7,7,8,8,9,9,10,10,11,11,12,12,13,13,14,14],"right_children":[2,4,6,8,10,12,14,16,18,20,22,24,26,28,30,-1,-1,-1,-1,-1,-1,-1,-1,-1,-1,-1,-1,-1,-1,-1,-1],"split_conditions":[1.0188E4,5.2779E2,1.72E-1,9.23E0,4.47E-1,2.3886E4,1.848E0,9.74E-1,3.5875446E1,1.5585442E0,2.081E0,9.0419E0,7.1E-1,1.8778785E0,6.3156E4,-2.6462011E-2,4.3780416E-2,1.2341272E-1,2.4033101E-2,5.1471982E-2,-1.1523792E-2,4.158009E-2,7.755619E-2,-3.543928E-2,5.933216E-2,-1.3268745E-2,6.895601E-2,5.9694525E-2,-2.9307688E-2,7.784279E-2,9.443184E-2],"split_indices":[4,7,2,3,2,4,3,2,0,0,3,3,9,0,4,0,0,0,0,0,0,0,0,0,0,0,0,0,0,0,0],"split_type":[0,0,0,0,0,0,0,0,0,0,0,0,0,0,0,0,0,0,0,0,0,0,0,0,0,0,0,0,0,0,0],"sum_hessian":[2.8871558E3,2.4948667E3,3.922891E2,1.7122983E3,7.825685E2,2.6294668E1,3.6599442E2,1.3710316E3,3.4126663E2,3.39452E2,4.431165E2,1.09981785E1,1.5296491E1,1.65054E1,3.49489E2,1.2423201E3,1.287116E2,6.667903E1,2.7458762E2,1.8780916E2,1.5164284E2,1.4282056E2,3.0029593E2,8.957341E0,2.0408368E0,1.1824032E0,1.4114087E1,1.192975E1,4.5756483E0,1.3901982E2,2.104692E2],"tree_param":{"num_deleted":"0","num_feature":"10","num_nodes":"31","size_leaf_vector":"1"}},{"base_weights":[-1.2169549E-1,7.571975E-2,-3.5714078E-1,-1.4137365E-1,1.1042123E-1,-3.816974E-1,3.4194496E-2,9.197747E-2,-4.2846152E-1,1.5525392E-1,1.0577749E-3,-2.0472157E-1,-4.1441727E-1,1.512643E-1,-3.693926E-1,3.4197908E-2,-1.4360746E-2,3.2586496E-2,-6.725663E-2,-6.429332E-3,3.0795433E-2,-2.7519459E-2,2.1772843E-2,-4.859466E-2,2.309724E-2,-6.920756E-2,-4.685906E-2,9.536681E-2,8.515601E-3,-7.0268795E-2,-0E0],"categories":[],"categories_nodes":[],"categories_segments":[],"categories_sizes":[],"default_left":[0,0,0,0,0,0,0,0,0,0,0,0,0,0,0,0,0,0,0,0,0,0,0,0,0,0,0,0,0,0,0],"id":28,"left_children":[1,3,5,7,9,11,13,15,17,19,21,23,25,27,29,-1,-1,-1,-1,-1,-1,-1,-1,-1,-1,-1,-1,-1,-1,-1,-1],"loss_changes":[1.1262453E2,9.960421E0,1.067836E1,1.2317144E1,5.564909E0,5.7908173E0,3.2476113E0,2.6597564E0,1.2753983E0,8.032043E0,8.919532E0,7.2474113E0,3.8285828E0,2.3041253E0,5.1882195E-1,0E0,0E0,0E0,0E0,0E0,0E0,0E0,0E0,0E0,0E0,0E0,0E0,0E0,0E0,0E0,0E0],"parents":[2147483647,0,0,1,1,2,2,3,3,4,4,5,5,6,6,7,7,8,8,9,9,10,10,11,11,12,12,13,13,14,14],"right_children":[2,4,6,8,10,12,14,16,18,20,22,24,26,28,30,-1,-1,-1,-1,-1,-1,-1,-1,-1,-1,-1,-1,-1,-1,-1,-1],"split_conditions":[1.82E1,2.4044123E0,1.6151561E2,2.0243E0,1.26E1,1.873E0,3.568E1,1.434E0,7.6E2,7.1E0,1.3821421E1,1.3882E3,1.744486E1,5.8919E0,3.7459003E2,3.4197908E-2,-1.4360746E-2,3.2586496E-2,-6.725663E-2,-6.429332E-3,3.0795433E-2,-2.7519459E-2,2.1772843E-2,-4.859466E-2,2.309724E-2,-6.920756E-2,-4.685906E-2,9.536681E-2,8.515601E-3,-7.0268795E-2,-0E0],"split_indices":[8,0,0,3,8,3,5,3,6,8,0,4,0,3,0,0,0,0,0,0,0,0,0,0,0,0,0,0,0,0,0],"split_type":[0,0,0,0,0,0,0,0,0,0,0,0,0,0,0,0,0,0,0,0,0,0,0,0,0,0,0,0,0,0,0],"sum_hessian":[2.4192803E3,1.3164232E3,1.1028572E3,1.8018036E2,1.1362428E3,1.0380251E3,6.483206E1,9.994989E1,8.023048E1,8.046353E2,3.3160748E2,1.6470988E2,8.733152E2,5.1415874E1,1.3416189E1,5.8017353E1,4.1932533E1,1.6574212E0,7.857306E1,1.6193068E2,6.4270465E2,1.4486263E2,1.8674486E2,1.2397099E2,4.07389E1,5.9252313E2,2.8079208E2,6.3486204E0,4.5067257E1,9.949572E0,3.4666176E0],"tree_param":{"num_deleted":"0","num_feature":"10","num_nodes":"31","size_leaf_vector":"1"}},{"base_weights":[-3.657117E-2,-4.7907516E-1,5.5302702E-2,-5.1227E-1,-3.139436E-1,1.4079027E-1,-4.6348083E-1,-5.173708E-1,5.4965E-2,5.336634E-2,-3.3496955E-1,1.9797945E-1,-5.100764E-1,-1.7538868E-1,-5.4538506E-1,-5.129641E-3,-7.796094E-2,-3.1638622E-2,-7.4682154E-2,-3.646225E-3,5.2737653E-2,-2.7094716E-2,-8.1110865E-2,-8.465587E-3,-6.1931975E-2,-8.385634E-2,-4.680697E-2],"categories":[],"categories_nodes":[],"categories_segments":[],"categories_sizes":[],"default_left":[0,0,0,0,0,0,0,0,0,0,0,0,0,0,0,0,0,0,0,0,0,0,0,0,0,0,0],"id":29,"left_children":[1,3,5,7,9,11,13,15,-1,-1,17,19,21,23,25,-1,-1,-1,-1,-1,-1,-1,-1,-1,-1,-1,-1],"loss_changes":[1.0270845E2,1.9765778E0,9.286341E1,1.9987488E0,1.3398032E0,6.707704E1,6.7261124E0,3.1747437E-1,0E0,0E0,1.2783165E0,5.6520287E1,1.2032967E0,1.8497777E0,2.951126E-1,0E0,0E0,0E0,0E0,0E0,0E0,0E0,0E0,0E0,0E0,0E0,0E0],"parents":[2147483647,0,0,1,1,2,2,3,3,4,4,5,5,6,6,7,7,10,10,11,11,12,12,13,13,14,14],"right_children":[2,4,6,8,10,12,14,16,-1,-1,18,20,22,24,26,-1,-1,-1,-1,-1,-1,-1,-1,-1,-1,-1,-1],"split_conditions":[1.14E1,6.81E-1,9.65E-1,4.1745E3,6.91E-1,1.6445E4,2.33E1,1.315337E2,5.4965E-2,5.336634E-2,2.1461845E1,2.08E1,1.48E-1,6.479E0,8.167584E1,-5.129641E-3,-7.796094E-2,-3.1638622E-2,-7.4682154E-2,-3.646225E-3,5.2737653E-2,-2.7094716E-2,-8.1110865E-2,-8.465587E-3,-6.1931975E-2,-8.385634E-2,-4.680697E-2],"split_indices":[8,2,2,4,2,4,8,1,0,0,0,8,2,3,0,0,0,0,0,0,0,0,0,0,0,0,0],"split_type":[0,0,0,0,0,0,0,0,0,0,0,0,0,0,0,0,0,0,0,0,0,0,0,0,0,0,0],"sum_hessian":[2.5220242E3,4.323415E2,2.0896826E3,3.5597363E2,7.6367874E1,1.7954672E3,2.9421548E2,3.5484995E2,1.1236895E0,1.2105881E0,7.515729E1,1.651869E3,1.4359816E2,6.679006E1,2.2742542E2,2.0877028E0,3.5276224E2,4.5622375E1,2.953491E1,6.7544244E2,9.764266E2,1.3678375E1,1.2991978E2,4.6430775E1,2.0359285E1,2.118082E2,1.5617212E1],"tree_param":{"num_deleted":"0","num_feature":"10","num_nodes":"27","size_leaf_vector":"1"}},{"base_weights":[1.22318685E-1,1.819343E-2,4.684528E-1,3.004563E-1,-6.020933E-2,3.3796377E-2,4.9134174E-1,1.0348266E-1,5.664219E-1,-1.3677646E-1,2.7147815E-1,-3.0969092E-1,4.387275E-1,3.041618E-1,5.3559035E-1,-2.7167974E-3,4.7923822E-2,1.0885116E-1,5.377217E-2,-2.5535455E-2,3.025404E-2,1.1769481E-1,1.786688E-2,-6.8225905E-2,3.6619395E-2,-2.2962635E-2,7.974478E-2,6.777261E-2,1.95841E-2,5.4861855E-2,8.583706E-2],"categories":[],"categories_nodes":[],"categories_segments":[],"categories_sizes":[],"default_left":[0,0,0,0,0,0,0,0,0,0,0,0,0,0,0,0,0,0,0,0,0,0,0,0,0,0,0,0,0,0,0],"id":30,"left_children":[1,3,5,7,9,11,13,15,17,19,21,23,25,27,29,-1,-1,-1,-1,-1,-1,-1,-1,-1,-1,-1,-1,-1,-1,-1,-1],"loss_changes":[1.0145653E2,4.8032337E1,6.3920135E0,2.4534557E1,4.3180893E1,5.1441526E0,4.710144E0,7.231694E0,5.9975357E0,1.5705894E1,2.4653353E1,1.8462168E0,1.1351016E0,2.9831495E0,2.5813751E0,0E0,0E0,0E0,0E0,0E0,0E0,0E0,0E0,0E0,0E0,0E0,0E0,0E0,0E0,0E0,0E0],"parents":[2147483647,0,0,1,1,2,2,3,3,4,4,5,5,6,6,7,7,8,8,9,9,10,10,11,11,12,12,13,13,14,14],"right_children":[2,4,6,8,10,12,14,16,18,20,22,24,26,28,30,-1,-1,-1,-1,-1,-1,-1,-1,-1,-1,-1,-1,-1,-1,-1,-1],"split_conditions":[1.435E1,2.2524178E0,1.4598E0,2.222E0,9.23E0,2.48449E3,2.35E1,3.15734E3,1.03E0,2.1431204E2,3.5875446E1,5.444E3,8.244E-1,1.0577E3,9.526E2,-2.7167974E-3,4.7923822E-2,1.0885116E-1,5.377217E-2,-2.5535455E-2,3.025404E-2,1.1769481E-1,1.786688E-2,-6.8225905E-2,3.6619395E-2,-2.2962635E-2,7.974478E-2,6.777261E-2,1.95841E-2,5.4861855E-2,8.583706E-2],"split_indices":[5,0,3,3,3,7,5,7,9,0,0,4,3,4,4,0,0,0,0,0,0,0,0,0,0,0,0,0,0,0,0],"split_type":[0,0,0,0,0,0,0,0,0,0,0,0,0,0,0,0,0,0,0,0,0,0,0,0,0,0,0,0,0,0,0],"sum_hessian":[2.8148303E3,2.1657239E3,6.4910645E2,4.6983856E2,1.6958853E3,3.29382E1,6.161683E2,2.717415E2,1.9809706E2,1.379026E3,3.1685922E2,1.794208E1,1.499612E1,1.2125296E2,4.949153E2,1.747447E2,9.699679E1,1.0908971E2,8.900735E1,1.2561383E3,1.22887695E2,7.049218E1,2.4636705E2,1.46425E1,3.2995794E0,1.712892E0,1.3283229E1,6.3479504E1,5.7773457E1,9.223557E1,4.0267972E2],"tree_param":{"num_deleted":"0","num_feature":"10","num_nodes":"31","size_leaf_vector":"1"}},{"base_weights":[-1.11081794E-1,-6.596847E-2,-3.8956538E-1,-1.2100774E-1,6.698383E-2,7.258476E-2,-4.1859666E-1,-4.01264E-2,-2.0263062E-1,7.7855915E-2,-3.3050585E-1,3.8493377E-1,-3.604009E-1,-4.463794E-1,-1.4434788E-1,-2.5946388E-2,9.880156E-3,4.269871E-3,-3.780354E-2,-1.0199932E-2,1.5905168E-2,-6.3784495E-2,3.673847E-2,1.8251592E-2,1.3314277E-1,7.927814E-3,-6.630816E-2,-6.9339216E-2,-2.1500917E-2,-6.440117E-2,1.4161056E-2],"categories":[],"categories_nodes":[],"categories_segments":[],"categories_sizes":[],"default_left":[0,0,0,0,0,0,0,0,0,0,0,0,0,0,0,0,0,0,0,0,0,0,0,0,0,0,0,0,0,0,0],"id":31,"left_children":[1,3,5,7,9,11,13,15,17,19,21,23,25,27,29,-1,-1,-1,-1,-1,-1,-1,-1,-1,-1,-1,-1,-1,-1,-1,-1],"loss_changes":[2.9359886E1,1.4806901E1,4.4713745E0,9.401314E0,2.5858963E0,3.0900478E0,2.1541023E0,1.0192743E1,8.149328E0,2.3954654E0,1.0933118E0,1.4261862E0,4.0980196E-1,1.1440315E0,2.2621276E0,0E0,0E0,0E0,0E0,0E0,0E0,0E0,0E0,0E0,0E0,0E0,0E0,0E0,0E0,0E0,0E0],"parents":[2147483647,0,0,1,1,2,2,3,3,4,4,5,5,6,6,7,7,8,8,9,9,10,10,11,11,12,12,13,13,14,14],"right_children":[2,4,6,8,10,12,14,16,18,20,22,24,26,28,30,-1,-1,-1,-1,-1,-1,-1,-1,-1,-1,-1,-1,-1,-1,-1,-1],"split_conditions":[2.35E1,4.294952E1,1.4598E0,1.56E0,2.388E1,1.8E3,2.0630966E2,3.98865E0,1.848E0,4.9E-2,1.732E0,1.482E3,8.875E-1,1.4653E0,1.033E0,-2.5946388E-2,9.880156E-3,4.269871E-3,-3.780354E-2,-1.0199932E-2,1.5905168E-2,-6.3784495E-2,3.673847E-2,1.8251592E-2,1.3314277E-1,7.927814E-3,-6.630816E-2,-6.9339216E-2,-2.1500917E-2,-6.440117E-2,1.4161056E-2],"split_indices":[5,0,3,5,3,6,0,0,3,2,9,6,3,2,9,0,0,0,0,0,0,0,0,0,0,0,0,0,0,0,0],"split_type":[0,0,0,0,0,0,0,0,0,0,0,0,0,0,0,0,0,0,0,0,0,0,0,0,0,0,0,0,0,0,0],"sum_hessian":[2.3426697E3,2.0185112E3,3.241586E2,1.4282002E3,5.9031104E2,1.877846E1,3.0538016E2,7.194725E2,7.087277E2,5.764051E2,1.3905921E1,1.1172038E1,7.6064215E0,2.7581848E2,2.9561676E1,3.1914554E2,4.0032693E2,1.24596535E2,5.8413116E2,9.229581E1,4.8410928E2,1.2537834E1,1.3680872E0,9.093043E0,2.0789948E0,1.1692995E0,6.437122E0,2.607709E2,1.5047576E1,1.2939086E1,1.662259E1],"tree_param":{"num_deleted":"0","num_feature":"10","num_nodes":"31","size_leaf_vector":"1"}},{"base_weights":[-3.4371868E-2,-4.6458077E-1,5.236308E-2,-3.9561853E-1,-8.259902E-2,1.9757043E-1,-3.6077634E-1,-4.5178562E-1,1.0402036E-1,-5.7620704E-3,3.6117598E-1,-1.7144693E-1,-5.0115347E-1,-7.885187E-2,-5.613796E-2,4.3878812E-2,-6.2440917E-2,1.2191395E-2,-6.404009E-2,7.12588E-2,-3.2918638E-4,-3.5447504E-2,8.5673064E-2,-4.7858514E-2,-7.7739194E-2],"categories":[],"categories_nodes":[],"categories_segments":[],"categories_sizes":[],"default_left":[0,0,0,0,0,0,0,0,0,0,0,0,0,0,0,0,0,0,0,0,0,0,0,0,0],"id":32,"left_children":[1,3,5,7,-1,9,11,13,15,17,19,21,23,-1,-1,-1,-1,-1,-1,-1,-1,-1,-1,-1,-1],"loss_changes":[9.128136E1,1.9061356E0,1.222343E2,6.741192E0,0E0,5.0190823E1,1.38437805E1,7.332268E-1,2.7083192E0,2.4806637E1,3.463179E1,1.1265363E1,5.29274E-1,0E0,0E0,0E0,0E0,0E0,0E0,0E0,0E0,0E0,0E0,0E0,0E0],"parents":[2147483647,0,0,1,1,2,2,3,3,5,5,6,6,7,7,8,8,9,9,10,10,11,11,12,12],"right_children":[2,4,6,8,-1,10,12,14,16,18,20,22,24,-1,-1,-1,-1,-1,-1,-1,-1,-1,-1,-1,-1],"split_conditions":[1.14E1,3.5875446E1,4.81E0,3.686E2,-8.259902E-2,2.08E1,1.78E1,5.89662E0,5.18E0,7.547E0,1.222E3,1.0481E3,2.27E1,-7.885187E-2,-5.613796E-2,4.3878812E-2,-6.2440917E-2,1.2191395E-2,-6.404009E-2,7.12588E-2,-3.2918638E-4,-3.5447504E-2,8.5673064E-2,-4.7858514E-2,-7.7739194E-2],"split_indices":[8,0,5,4,0,8,5,0,5,3,6,8,8,0,0,0,0,0,0,0,0,0,0,0,0],"split_type":[0,0,0,0,0,0,0,0,0,0,0,0,0,0,0,0,0,0,0,0,0,0,0,0,0],"sum_hessian":[2.4418845E3,4.0844095E2,2.0334437E3,2.3362582E2,1.7481512E2,1.5055642E3,5.278795E2,2.1036884E2,2.3257E1,6.7186914E2,8.33695E2,2.2694685E2,3.0093265E2,1.0113282E2,1.0923601E2,1.7855566E1,5.4014344E0,5.5794305E2,1.13926125E2,6.344993E2,1.9919566E2,2.1009247E2,1.6854383E1,2.9721325E1,2.7121133E2],"tree_param":{"num_deleted":"0","num_feature":"10","num_nodes":"25","size_leaf_vector":"1"}},{"base_weights":[1.1071497E-1,5.6157142E-2,5.0036025E-1,2.688968E-1,-4.3900985E-2,3.8834873E-1,8.810203E-2,1.0275267E-1,6.020711E-1,-1.14966914E-1,3.007635E-1,2.377092E-2,4.2905128E-1,-6.913102E-3,5.1236555E-2,1.2036432E-1,6.0540777E-2,4.6726335E-2,-2.4775133E-2,1.0334594E-1,2.7375506E-2,4.9214046E-2,-4.8273917E-2,4.0519122E-2,7.724514E-2],"categories":[],"categories_nodes":[],"categories_segments":[],"categories_sizes":[],"default_left":[0,0,0,0,0,0,0,0,0,0,0,0,0,0,0,0,0,0,0,0,0,0,0,0,0],"id":33,"left_children":[1,3,5,7,9,11,-1,13,15,17,19,21,23,-1,-1,-1,-1,-1,-1,-1,-1,-1,-1,-1,-1],"loss_changes":[5.810985E1,5.1237236E1,2.7191238E0,4.242231E1,4.014723E1,2.2082443E0,0E0,1.8414417E1,9.393738E0,2.9180576E1,1.2522787E1,2.0790207E0,1.5204983E0,0E0,0E0,0E0,0E0,0E0,0E0,0E0,0E0,0E0,0E0,0E0,0E0],"parents":[2147483647,0,0,1,1,2,2,3,3,4,4,5,5,7,7,8,8,9,9,10,10,11,11,12,12],"right_children":[2,4,6,8,10,12,-1,14,16,18,20,22,24,-1,-1,-1,-1,-1,-1,-1,-1,-1,-1,-1,-1],"split_conditions":[1.0188E4,3.8904307E0,6.3156E4,3.002E0,1.0994E1,1.72E-1,8.810203E-2,2.48449E3,1.026E0,7.1E0,3.5875446E1,6.6E-2,7.885E1,-6.913102E-3,5.1236555E-2,1.2036432E-1,6.0540777E-2,4.6726335E-2,-2.4775133E-2,1.0334594E-1,2.7375506E-2,4.9214046E-2,-4.8273917E-2,4.0519122E-2,7.724514E-2],"split_indices":[4,0,4,3,3,2,0,7,9,8,0,2,7,0,0,0,0,0,0,0,0,0,0,0,0],"split_type":[0,0,0,0,0,0,0,0,0,0,0,0,0,0,0,0,0,0,0,0,0,0,0,0,0],"sum_hessian":[2.7367876E3,2.4028828E3,3.3390485E2,7.678772E2,1.6350056E3,1.5123718E2,1.8266768E2,5.143187E2,2.5355846E2,1.3568595E3,2.781461E2,1.5753753E1,1.3548343E2,3.1758737E2,1.9673135E2,1.2289843E2,1.3066002E2,1.4158994E2,1.2152695E3,6.2495697E1,2.156504E2,8.58484E0,7.1689124E0,5.085898E1,8.462444E1],"tree_param":{"num_deleted":"0","num_feature":"10","num_nodes":"25","size_leaf_vector":"1"}},{"base_weights":[-9.976285E-2,6.3124165E-2,-3.1610492E-1,-1.0174533E-1,8.792777E-2,-3.4218234E-1,6.568793E-2,1.0991525E-1,-3.9001107E-1,-6.7764044E-2,1.1417987E-1,-1.8511686E-1,-3.8082576E-1,-1.7262805E-2,5.4275167E-1,-4.523534E-2,2.61806E-2,3.5122618E-2,-6.1797973E-2,-2.533407E-2,1.4113315E-2,2.5542242E-2,6.6876283E-4,-4.2095814E-2,2.296641E-2,-5.8720294E-2,9.958577E-3,4.918111E-2,-1.4920054E-2,1.0665778E-1,-3.1579956E-2],"categories":[],"categories_nodes":[],"categories_segments":[],"categories_sizes":[],"default_left":[0,0,0,0,0,0,0,0,0,0,0,0,0,0,0,0,0,0,0,0,0,0,0,0,0,0,0,0,0,0,0],"id":34,"left_children":[1,3,5,7,9,11,13,15,17,19,21,23,25,27,29,-1,-1,-1,-1,-1,-1,-1,-1,-1,-1,-1,-1,-1,-1,-1,-1],"loss_changes":[8.052928E1,5.349082E0,9.843079E0,1.0542706E1,4.659483E0,5.3813705E0,2.610903E0,2.7495074E0,1.2120962E0,2.731549E0,5.967926E0,6.1046443E0,3.5841522E0,1.6433914E0,1.5850413E0,0E0,0E0,0E0,0E0,0E0,0E0,0E0,0E0,0E0,0E0,0E0,0E0,0E0,0E0,0E0,0E0],"parents":[2147483647,0,0,1,1,2,2,3,3,4,4,5,5,6,6,7,7,8,8,9,9,10,10,11,11,12,12,13,13,14,14],"right_children":[2,4,6,8,10,12,14,16,18,20,22,24,26,28,30,-1,-1,-1,-1,-1,-1,-1,-1,-1,-1,-1,-1,-1,-1,-1,-1],"split_conditions":[1.82E1,2.4044123E0,1.6151561E2,2.0243E0,7.1E0,2.044E0,5.2233887E2,8.4E0,7.6E2,1.9174123E2,1.26E1,2.1411E3,3.5458862E2,5.8919E0,1.0188E4,-4.523534E-2,2.61806E-2,3.5122618E-2,-6.1797973E-2,-2.533407E-2,1.4113315E-2,2.5542242E-2,6.6876283E-4,-4.2095814E-2,2.296641E-2,-5.8720294E-2,9.958577E-3,4.918111E-2,-1.4920054E-2,1.0665778E-1,-3.1579956E-2],"split_indices":[8,0,0,3,8,3,0,8,6,1,8,4,1,3,4,0,0,0,0,0,0,0,0,0,0,0,0,0,0,0,0],"split_type":[0,0,0,0,0,0,0,0,0,0,0,0,0,0,0,0,0,0,0,0,0,0,0,0,0,0,0,0,0,0,0],"sum_hessian":[2.281361E3,1.302012E3,9.7934906E2,1.6892593E2,1.133086E3,9.171732E2,6.2175793E1,9.7918945E1,7.100698E1,1.6248341E2,9.706026E2,1.8389676E2,7.332765E2,5.4429695E1,7.746096E0,1.2085184E1,8.583376E1,1.603462E0,6.940352E1,1.0032724E2,6.2156174E1,6.4089233E2,3.2971027E2,1.438943E2,4.0002457E1,7.1669354E2,1.6582966E1,9.086445E0,4.534325E1,6.531663E0,1.2144333E0],"tree_param":{"num_deleted":"0","num_feature":"10","num_nodes":"31","size_leaf_vector":"1"}},{"base_weights":[-3.186518E-2,-4.2544046E-1,5.670289E-2,-3.4492433E-1,-8.1042886E-2,1.2793215E-1,-3.8321137E-1,-4.0897888E-1,9.8780595E-2,2.3541419E-1,-1.6394147E-1,-2.2235829E-1,-5.2560866E-1,-8.153367E-2,-4.9979202E-2,-3.733958E-2,4.9513184E-2,4.6136737E-2,-3.880981E-2,-9.133229E-3,-7.201458E-2,-6.030629E-2,3.2963526E-2,-1.8971024E-2,-8.035544E-2],"categories":[],"categories_nodes":[],"categories_segments":[],"categories_sizes":[],"default_left":[0,0,0,0,0,0,0,0,0,0,0,0,0,0,0,0,0,0,0,0,0,0,0,0,0],"id":35,"left_children":[1,3,5,7,-1,9,11,13,15,17,19,21,23,-1,-1,-1,-1,-1,-1,-1,-1,-1,-1,-1,-1],"loss_changes":[8.249089E1,3.5584564E0,6.059003E1,7.546545E0,0E0,5.2282265E1,5.8629837E0,1.8874626E0,2.9402986E0,4.3566696E1,1.4507894E1,1.054744E1,3.6685944E-1,0E0,0E0,0E0,0E0,0E0,0E0,0E0,0E0,0E0,0E0,0E0,0E0],"parents":[2147483647,0,0,1,1,2,2,3,3,5,5,6,6,7,7,8,8,9,9,10,10,11,11,12,12],"right_children":[2,4,6,8,-1,10,12,14,16,18,20,22,24,-1,-1,-1,-1,-1,-1,-1,-1,-1,-1,-1,-1],"split_conditions":[1.18E1,3.5875446E1,4.6349E3,3.43E2,-8.1042886E-2,5.2779E2,2.3886E4,3.7918744E0,8.6E0,1.01E1,2.107E3,5.412E2,1.8268E0,-8.153367E-2,-4.9979202E-2,-3.733958E-2,4.9513184E-2,4.6136737E-2,-3.880981E-2,-9.133229E-3,-7.201458E-2,-6.030629E-2,3.2963526E-2,-1.8971024E-2,-8.035544E-2],"split_indices":[8,0,4,4,0,7,4,0,8,3,6,8,3,0,0,0,0,0,0,0,0,0,0,0,0],"split_type":[0,0,0,0,0,0,0,0,0,0,0,0,0,0,0,0,0,0,0,0,0,0,0,0,0],"sum_hessian":[2.362028E3,4.3270642E2,1.9293215E3,2.5958994E2,1.7311647E2,1.6618817E3,2.6743988E2,2.2717604E2,3.24139E1,1.2151382E3,4.4674344E2,1.2831717E2,1.3912273E2,7.691848E1,1.5025755E2,1.2715182E1,1.9698717E1,1.0611305E3,1.5400769E2,3.389588E2,1.0778465E2,9.152657E1,3.6790604E1,4.3434763E0,1.3477925E2],"tree_param":{"num_deleted":"0","num_feature":"10","num_nodes":"25","size_leaf_vector":"1"}},{"base_weights":[1.0069029E-1,2.0644147E-2,4.463221E-1,-2.576523E-2,3.3941177E-1,2.4659453E-1,5.0411016E-1,-7.9141624E-2,2.055348E-1,1.6221756E-1,4.2837018E-1,-5.0254818E-2,3.3984408E-1,3.6450708E-1,5.4170454E-1,3.430536E-2,-1.8734207E-2,6.691541E-2,9.484636E-3,-2.0468786E-2,4.121202E-2,8.678367E-2,5.221632E-2,-5.6247715E-2,2.2253482E-2,8.5382916E-2,3.987789E-2,5.954072E-2,-2.4677506E-2,-6.3803117E-3,8.166976E-2],"categories":[],"categories_nodes":[],"categories_segments":[],"categories_sizes":[],"default_left":[0,0,0,0,0,0,0,0,0,0,0,0,0,0,0,0,0,0,0,0,0,0,0,0,0,0,0,0,0,0,0],"id":36,"left_children":[1,3,5,7,9,11,13,15,17,19,21,23,25,27,29,-1,-1,-1,-1,-1,-1,-1,-1,-1,-1,-1,-1,-1,-1,-1,-1],"loss_changes":[7.383032E1,3.2166428E1,5.4693985E0,2.3436375E1,4.157625E0,3.3000755E0,1.5454712E0,2.1777637E1,1.2074097E1,3.3137598E0,1.7028809E0,2.0325868E0,1.1327925E0,1.6770525E0,5.8068085E-1,0E0,0E0,0E0,0E0,0E0,0E0,0E0,0E0,0E0,0E0,0E0,0E0,0E0,0E0,0E0,0E0],"parents":[2147483647,0,0,1,1,2,2,3,3,4,4,5,5,6,6,7,7,8,8,9,9,10,10,11,11,12,12,13,13,14,14],"right_children":[2,4,6,8,10,12,14,16,18,20,22,24,26,28,30,-1,-1,-1,-1,-1,-1,-1,-1,-1,-1,-1,-1,-1,-1,-1,-1],"split_conditions":[1.943E1,1.722E3,3.56E1,8.605E0,1.635E0,2.203E0,3.029E1,8E0,1.96E0,1.938E3,1.08E0,8.16E2,6.61E-1,1.275E0,2.08E2,3.430536E-2,-1.8734207E-2,6.691541E-2,9.484636E-3,-2.0468786E-2,4.121202E-2,8.678367E-2,5.221632E-2,-5.6247715E-2,2.2253482E-2,8.5382916E-2,3.987789E-2,5.954072E-2,-2.4677506E-2,-6.3803117E-3,8.166976E-2],"split_indices":[5,6,8,3,3,3,5,8,5,6,5,6,2,2,6,0,0,0,0,0,0,0,0,0,0,0,0,0,0,0,0],"split_type":[0,0,0,0,0,0,0,0,0,0,0,0,0,0,0,0,0,0,0,0,0,0,0,0,0,0,0,0,0,0,0],"sum_hessian":[2.6689363E3,2.169015E3,4.9992133E2,1.8946915E3,2.7432352E2,1.1493762E2,3.8498373E2,1.54086E3,3.5383148E2,9.395263E1,1.8037088E2,2.7438862E1,8.749876E1,8.678136E1,2.9820236E2,1.980593E2,1.3428007E3,1.2966222E2,2.2416928E2,2.5351221E1,6.860141E1,5.8061535E1,1.2230934E2,9.930275E0,1.7508587E1,1.7746525E1,6.9752235E1,8.241727E1,4.364086E0,1.0964977E0,2.9710587E2],"tree_param":{"num_deleted":"0","num_feature":"10","num_nodes":"31","size_leaf_vector":"1"}},{"base_weights":[-8.946929E-2,5.8095124E-2,-2.957644E-1,5.153099E-1,4.8929114E-2,-3.219134E-1,6.574357E-2,-0E0,6.957825E-1,-1.2894507E-1,7.3712535E-2,-1.681761E-1,-3.6116767E-1,1.5529573E-1,-3.3165962E-1,-5.4987375E-2,9.6929036E-2,1.3446261E-2,1.2494249E-1,7.988845E-3,-5.504827E-2,2.7432417E-2,5.1040105E-3,-3.4279134E-2,5.2898094E-2,-6.2348053E-2,-3.8503744E-2,8.7004155E-3,9.18554E-2,-0E0,-6.875885E-2],"categories":[],"categories_nodes":[],"categories_segments":[],"categories_sizes":[],"default_left":[0,0,0,0,0,0,0,0,0,0,0,0,0,0,0,0,0,0,0,0,0,0,0,0,0,0,0,0,0,0,0],"id":37,"left_children":[1,3,5,7,9,11,13,15,17,19,21,23,25,27,29,-1,-1,-1,-1,-1,-1,-1,-1,-1,-1,-1,-1,-1,-1,-1,-1],"loss_changes":[6.762145E1,5.321463E0,8.822845E0,2.289977E0,5.6219854E0,5.041313E0,2.3585722E0,2.519507E0,1.2933073E0,6.828767E0,4.8114705E0,5.8083215E0,3.6256409E0,2.2497725E0,5.483813E-1,0E0,0E0,0E0,0E0,0E0,0E0,0E0,0E0,0E0,0E0,0E0,0E0,0E0,0E0,0E0,0E0],"parents":[2147483647,0,0,1,1,2,2,3,3,4,4,5,5,6,6,7,7,8,8,9,9,10,10,11,11,12,12,13,13,14,14],"right_children":[2,4,6,8,10,12,14,16,18,20,22,24,26,28,30,-1,-1,-1,-1,-1,-1,-1,-1,-1,-1,-1,-1,-1,-1,-1,-1],"split_conditions":[1.82E1,8.244E-1,1.6151561E2,1.111E2,2.4044123E0,2.044E0,2.866E2,6.15E-1,6.47E2,2.0243E0,1.264E2,9.75172E0,1.7067644E1,5.2233887E2,2.0630966E2,-5.4987375E-2,9.6929036E-2,1.3446261E-2,1.2494249E-1,7.988845E-3,-5.504827E-2,2.7432417E-2,5.1040105E-3,-3.4279134E-2,5.2898094E-2,-6.2348053E-2,-3.8503744E-2,8.7004155E-3,9.18554E-2,-0E0,-6.875885E-2],"split_indices":[8,3,0,4,0,3,8,2,6,3,4,0,0,0,0,0,0,0,0,0,0,0,0,0,0,0,0,0,0,0,0],"split_type":[0,0,0,0,0,0,0,0,0,0,0,0,0,0,0,0,0,0,0,0,0,0,0,0,0,0,0,0,0,0,0],"sum_hessian":[2.217425E3,1.2932825E3,9.241426E2,2.3032581E1,1.2702499E3,8.622677E2,6.1874844E1,6.5715423E0,1.646104E1,1.5382013E2,1.1164298E3,1.7805211E2,6.842156E2,5.1695656E1,1.017919E1,4.691109E0,1.8804332E0,3.7824638E0,1.2678576E1,8.777076E1,6.604937E1,2.950503E2,8.213795E2,1.6074065E2,1.7311459E1,4.4514893E2,2.3906668E2,4.4661552E1,7.034102E0,3.1936707E0,6.985519E0],"tree_param":{"num_deleted":"0","num_feature":"10","num_nodes":"31","size_leaf_vector":"1"}},{"base_weights":[-3.0704249E-2,-4.3884438E-1,4.7430284E-2,-4.773508E-1,-2.5573453E-1,1.275715E-1,-3.797858E-1,-4.832221E-1,5.315344E-2,5.668569E-2,-2.7916753E-1,1.6891403E-1,-4.696976E-1,-1.13160156E-1,-5.6110257E-1,-7.54246E-2,-4.876648E-2,-2.2487555E-2,-6.91669E-2,-4.626699E-3,4.6976183E-2,-3.8905635E-2,-7.997352E-2,2.975221E-2,-3.9769173E-2,-4.9273614E-2,-8.750152E-2],"categories":[],"categories_nodes":[],"categories_segments":[],"categories_sizes":[],"default_left":[0,0,0,0,0,0,0,0,0,0,0,0,0,0,0,0,0,0,0,0,0,0,0,0,0,0,0],"id":38,"left_children":[1,3,5,7,9,11,13,15,-1,-1,17,19,21,23,25,-1,-1,-1,-1,-1,-1,-1,-1,-1,-1,-1,-1],"loss_changes":[7.306094E1,2.278099E0,6.588976E1,1.8271332E0,1.2214913E0,4.0141193E1,1.4500278E1,5.2114105E-1,0E0,0E0,1.3897038E0,4.376776E1,1.0493126E0,6.0654974E0,4.578247E-1,0E0,0E0,0E0,0E0,0E0,0E0,0E0,0E0,0E0,0E0,0E0,0E0],"parents":[2147483647,0,0,1,1,2,2,3,3,4,4,5,5,6,6,7,7,10,10,11,11,12,12,13,13,14,14],"right_children":[2,4,6,8,10,12,14,16,-1,-1,18,20,22,24,26,-1,-1,-1,-1,-1,-1,-1,-1,-1,-1,-1,-1],"split_conditions":[1.14E1,6.81E-1,9.45E-1,4.1745E3,6.91E-1,1.6445E4,3.4E1,1.07E1,5.315344E-2,5.668569E-2,2.1461845E1,2.08E1,3.64E-1,9.68E-1,2.868E2,-7.54246E-2,-4.876648E-2,-2.2487555E-2,-6.91669E-2,-4.626699E-3,4.6976183E-2,-3.8905635E-2,-7.997352E-2,2.975221E-2,-3.9769173E-2,-4.9273614E-2,-8.750152E-2],"split_indices":[8,2,2,4,2,4,8,8,0,0,0,8,2,2,4,0,0,0,0,0,0,0,0,0,0,0,0],"split_type":[0,0,0,0,0,0,0,0,0,0,0,0,0,0,0,0,0,0,0,0,0,0,0,0,0,0,0],"sum_hessian":[2.2865088E3,3.6611792E2,1.9203907E3,2.993973E2,6.672062E1,1.6184277E3,3.0196304E2,2.982501E2,1.1472079E0,1.1483063E0,6.557231E1,1.5151519E3,1.032759E2,1.2376571E2,1.7819734E2,2.609011E2,3.7348988E1,4.079198E1,2.4780333E1,6.357303E2,8.794216E2,2.6661219E1,7.661468E1,4.016525E1,8.360046E1,1.869602E1,1.5950133E2],"tree_param":{"num_deleted":"0","num_feature":"10","num_nodes":"27","size_leaf_vector":"1"}},{"base_weights":[9.176997E-2,4.6862595E-2,4.558748E-1,2.3530565E-1,-3.9927423E-2,3.355565E-1,8.393973E-2,8.062682E-2,5.5650806E-1,-1.0186694E-1,2.5395218E-1,2.206016E-1,5.016016E-1,-6.1961007E-3,4.299144E-2,1.15321375E-1,5.1977806E-2,9.088973E-3,-3.051378E-2,9.20465E-2,2.224731E-2,2.1114394E-3,6.665561E-2,-2.8131362E-2,8.1846125E-2],"categories":[],"categories_nodes":[],"categories_segments":[],"categories_sizes":[],"default_left":[0,0,0,0,0,0,0,0,0,0,0,0,0,0,0,0,0,0,0,0,0,0,0,0,0],"id":39,"left_children":[1,3,5,7,9,11,-1,13,15,17,19,21,23,-1,-1,-1,-1,-1,-1,-1,-1,-1,-1,-1,-1],"loss_changes":[4.2548878E1,3.8048065E1,3.1024323E0,3.6289272E1,2.9025253E1,2.3364773E0,0E0,1.2546998E1,9.959946E0,2.1768835E1,1.0286417E1,3.885754E0,1.8927183E0,0E0,0E0,0E0,0E0,0E0,0E0,0E0,0E0,0E0,0E0,0E0,0E0],"parents":[2147483647,0,0,1,1,2,2,3,3,4,4,5,5,7,7,8,8,9,9,10,10,11,11,12,12],"right_children":[2,4,6,8,10,12,-1,14,16,18,20,22,24,-1,-1,-1,-1,-1,-1,-1,-1,-1,-1,-1,-1],"split_conditions":[1.0188E4,3.8904307E0,6.3156E4,3.002E0,1.0994E1,1.006E0,8.393973E-2,2.48449E3,1.026E0,1.17E1,3.5875446E1,4.833E0,5.19E-1,-6.1961007E-3,4.299144E-2,1.15321375E-1,5.1977806E-2,9.088973E-3,-3.051378E-2,9.20465E-2,2.224731E-2,2.1114394E-3,6.665561E-2,-2.8131362E-2,8.1846125E-2],"split_indices":[4,0,4,3,3,2,0,7,9,8,0,3,9,0,0,0,0,0,0,0,0,0,0,0,0],"split_type":[0,0,0,0,0,0,0,0,0,0,0,0,0,0,0,0,0,0,0,0,0,0,0,0,0],"sum_hessian":[2.6059082E3,2.3220474E3,2.838609E2,7.3150183E2,1.5905454E3,1.3578537E2,1.4807553E2,4.9563586E2,2.3586597E2,1.3150303E3,2.7551523E2,8.3344444E1,5.244092E1,3.120357E2,1.8360014E2,1.1440396E2,1.2146201E2,5.0577588E2,8.0925433E2,6.014798E1,2.1536725E2,4.4680115E1,3.866433E1,2.6220622E0,4.9818863E1],"tree_param":{"num_deleted":"0","num_feature":"10","num_nodes":"25","size_leaf_vector":"1"}},{"base_weights":[-7.974804E-2,-4.944097E-2,-3.6581978E-1,-7.59496E-2,9.669361E-2,-6.692419E-2,-4.7571704E-1,5.136257E-1,-8.349653E-2,-8.5035816E-2,1.5430348E-1,-2.4660966E-1,3.2929435E-1,7.532648E-2,-4.8654255E-1,1.1710433E-1,-0E0,2.6169578E-3,-1.9688627E-2,4.8391912E-2,-2.3414997E-2,3.0928746E-2,-1.4403584E-2,4.6215575E-2,-4.2016458E-2,1.6382499E-1,1.06773395E-2,-2.8366858E-2,4.628699E-2,-2.1212593E-4,-7.4450634E-2],"categories":[],"categories_nodes":[],"categories_segments":[],"categories_sizes":[],"default_left":[0,0,0,0,0,0,0,0,0,0,0,0,0,0,0,0,0,0,0,0,0,0,0,0,0,0,0,0,0,0,0],"id":40,"left_children":[1,3,5,7,9,11,13,15,17,19,21,23,25,27,29,-1,-1,-1,-1,-1,-1,-1,-1,-1,-1,-1,-1,-1,-1,-1,-1],"loss_changes":[1.8670238E1,7.5970955E0,6.665617E0,7.4242373E0,3.183671E0,4.2898574E0,1.0117531E0,2.867087E0,7.9220057E0,2.2076628E0,3.033145E0,9.3696356E-1,3.431451E0,4.0327165E-1,6.519661E-1,0E0,0E0,0E0,0E0,0E0,0E0,0E0,0E0,0E0,0E0,0E0,0E0,0E0,0E0,0E0,0E0],"parents":[2147483647,0,0,1,1,2,2,3,3,4,4,5,5,6,6,7,7,8,8,9,9,10,10,11,11,12,12,13,13,14,14],"right_children":[2,4,6,8,10,12,14,16,18,20,22,24,26,28,30,-1,-1,-1,-1,-1,-1,-1,-1,-1,-1,-1,-1,-1,-1,-1,-1],"split_conditions":[3.029E1,2.182719E2,1.563E3,6.969E-1,2.796E2,1.7080128E2,2.25E2,1.582E3,1.435E2,3.474E0,1.502E1,6.969E-1,2.344E0,8.03E-1,1.383E0,1.1710433E-1,-0E0,2.6169578E-3,-1.9688627E-2,4.8391912E-2,-2.3414997E-2,3.0928746E-2,-1.4403584E-2,4.6215575E-2,-4.2016458E-2,1.6382499E-1,1.06773395E-2,-2.8366858E-2,4.628699E-2,-2.1212593E-4,-7.4450634E-2],"split_indices":[5,1,4,3,4,1,6,6,4,3,3,3,3,9,3,0,0,0,0,0,0,0,0,0,0,0,0,0,0,0,0],"split_type":[0,0,0,0,0,0,0,0,0,0,0,0,0,0,0,0,0,0,0,0,0,0,0,0,0,0,0,0,0,0,0],"sum_hessian":[2.1603923E3,1.9558776E3,2.0451477E2,1.656953E3,2.9892447E2,5.6090153E1,1.4842462E2,1.9079416E1,1.6378737E3,7.1305244E1,2.2761922E2,3.9282894E1,1.6807259E1,2.4521189E0,1.459725E2,1.1828182E1,7.2512336E0,5.257903E2,1.1120834E3,9.325321E0,6.1979923E1,1.8916167E2,3.845755E1,1.1335529E0,3.814934E1,2.5172255E0,1.4290032E1,1.1256901E0,1.3264288E0,3.1362844E0,1.4283621E2],"tree_param":{"num_deleted":"0","num_feature":"10","num_nodes":"31","size_leaf_vector":"1"}},{"base_weights":[-3.0070111E-2,-4.2476693E-1,4.2956907E-2,-3.5089186E-1,-5.227951E-1,1.5731819E-1,-3.2327834E-1,-4.1131827E-1,1.1583677E-1,-8.2160555E-2,-3.3545166E-1,2.0626727E-1,-3.449915E-1,-1.6907562E-1,-4.6898696E-1,-7.885179E-2,-5.2067038E-2,5.13685E-2,-4.0953793E-2,4.377737E-2,-6.1852742E-2,5.1628727E-2,-2.9140166E-3,-1.0429366E-1,-3.354376E-2,-3.976072E-2,4.0000923E-2,-4.2682182E-2,-7.353396E-2],"categories":[],"categories_nodes":[],"categories_segments":[],"categories_sizes":[],"default_left":[0,0,0,0,0,0,0,0,0,0,0,0,0,0,0,0,0,0,0,0,0,0,0,0,0,0,0,0,0],"id":41,"left_children":[1,3,5,7,9,11,13,15,17,-1,19,21,23,25,27,-1,-1,-1,-1,-1,-1,-1,-1,-1,-1,-1,-1,-1,-1],"loss_changes":[6.4087326E1,2.0597038E0,7.864542E1,5.895796E0,2.1950912E-1,3.5311333E1,9.816223E0,8.826237E-1,2.3817358E0,0E0,1.3435032E0,4.0677914E1,5.023094E0,9.365806E0,5.377083E-1,0E0,0E0,0E0,0E0,0E0,0E0,0E0,0E0,0E0,0E0,0E0,0E0,0E0,0E0],"parents":[2147483647,0,0,1,1,2,2,3,3,4,4,5,5,6,6,7,7,8,8,10,10,11,11,12,12,13,13,14,14],"right_children":[2,4,6,8,10,12,14,16,18,-1,20,22,24,26,28,-1,-1,-1,-1,-1,-1,-1,-1,-1,-1,-1,-1,-1,-1],"split_conditions":[1.14E1,3.5875446E1,4.81E0,3.686E2,1.03E1,1.01E1,1.78E1,3.7918744E0,2.75E0,-8.2160555E-2,6.309507E1,1.029E3,1.7067644E1,4.7E2,2.27E1,-7.885179E-2,-5.2067038E-2,5.13685E-2,-4.0953793E-2,4.377737E-2,-6.1852742E-2,5.1628727E-2,-2.9140166E-3,-1.0429366E-1,-3.354376E-2,-3.976072E-2,4.0000923E-2,-4.2682182E-2,-7.353396E-2],"split_indices":[8,0,5,4,8,3,5,0,5,0,0,6,0,8,8,0,0,0,0,0,0,0,0,0,0,0,0,0,0],"split_type":[0,0,0,0,0,0,0,0,0,0,0,0,0,0,0,0,0,0,0,0,0,0,0,0,0,0,0,0,0],"sum_hessian":[2.2188472E3,3.451445E2,1.8737026E3,2.0262404E2,1.4252046E2,1.4289196E3,4.4478305E2,1.797977E2,2.2826344E1,1.2190897E2,2.061148E1,1.303294E3,1.25625626E2,2.1852556E2,2.2625749E2,5.891921E1,1.20878494E2,1.4734972E1,8.091371E0,1.4983279E0,1.9113153E1,8.0856415E2,4.9472977E2,2.9679655E1,9.594597E1,1.7990514E2,3.862042E1,2.6824148E1,1.9943333E2],"tree_param":{"num_deleted":"0","num_feature":"10","num_nodes":"29","size_leaf_vector":"1"}},{"base_weights":[8.2055576E-2,2.0575624E-2,4.2681003E-1,2.1103778E-1,-4.6228696E-2,3.0214742E-1,5.1470447E-1,1.6269391E-2,4.6225652E-1,-1.21491164E-1,1.4567643E-1,-3.8306024E-2,3.4400782E-1,-4.79482E-3,5.187168E-1,1.5861133E-2,-4.1943796E-2,9.936855E-2,3.6243834E-2,-2.4362747E-2,1.2601813E-2,1.1034111E-1,7.228918E-3,-4.8173983E-2,5.5362195E-2,6.859919E-2,2.838352E-2,-8.403855E-3,7.835805E-2],"categories":[],"categories_nodes":[],"categories_segments":[],"categories_sizes":[],"default_left":[0,0,0,0,0,0,0,0,0,0,0,0,0,0,0,0,0,0,0,0,0,0,0,0,0,0,0,0,0],"id":42,"left_children":[1,3,5,7,9,11,13,15,17,19,21,23,25,-1,27,-1,-1,-1,-1,-1,-1,-1,-1,-1,-1,-1,-1,-1,-1],"loss_changes":[5.3929356E1,2.7572002E1,3.8276062E0,2.7470346E1,2.319186E1,2.4024897E0,5.700569E-1,8.4940405E0,1.0430954E1,9.734362E0,2.5857962E1,2.486043E0,2.341114E0,0E0,5.718918E-1,0E0,0E0,0E0,0E0,0E0,0E0,0E0,0E0,0E0,0E0,0E0,0E0,0E0,0E0],"parents":[2147483647,0,0,1,1,2,2,3,3,4,4,5,5,6,6,7,7,8,8,9,9,10,10,11,11,12,12,14,14],"right_children":[2,4,6,8,10,12,14,16,18,20,22,24,26,-1,28,-1,-1,-1,-1,-1,-1,-1,-1,-1,-1,-1,-1,-1,-1],"split_conditions":[2.35E1,3.0086021E0,4.6349E3,2.222E0,7E0,1.4598E0,5.19E-1,1.9016551E0,1.016E0,4.35E0,1.2636205E1,1.8E3,1.4202803E2,-4.79482E-3,2.08E2,1.5861133E-2,-4.1943796E-2,9.936855E-2,3.6243834E-2,-2.4362747E-2,1.2601813E-2,1.1034111E-1,7.228918E-3,-4.8173983E-2,5.5362195E-2,6.859919E-2,2.838352E-2,-8.403855E-3,7.835805E-2],"split_indices":[5,0,4,3,3,3,9,0,9,5,0,6,1,0,6,0,0,0,0,0,0,0,0,0,0,0,0,0,0],"split_type":[0,0,0,0,0,0,0,0,0,0,0,0,0,0,0,0,0,0,0,0,0,0,0,0,0,0,0,0,0],"sum_hessian":[2.5453186E3,2.162152E3,3.8316647E2,5.607129E2,1.6014392E3,1.6258365E2,2.2058284E2,3.1726602E2,2.4344688E2,1.151207E3,4.5023212E2,1.7558674E1,1.4502498E2,1.324075E0,2.1925876E2,2.4485188E2,7.241413E1,1.2529545E2,1.1815143E2,9.6077014E2,1.9043692E2,6.1846264E1,3.8838586E2,1.0758032E1,6.8006434E0,8.109718E1,6.3927795E1,1.0373278E0,2.1822144E2],"tree_param":{"num_deleted":"0","num_feature":"10","num_nodes":"29","size_leaf_vector":"1"}},{"base_weights":[-6.9207504E-2,5.580454E-2,-2.638289E-1,2.1848334E-1,3.5272744E-2,-3.0277255E-1,-3.2643774E-3,-8.998147E-2,3.2973522E-1,-1.4810216E-1,7.316426E-2,-1.4329685E-1,-3.495788E-1,5.8881275E-2,-3.6394086E-1,6.681502E-2,-2.5998253E-2,-4.4202264E-2,5.5407587E-2,5.3554233E-3,-3.5524637E-2,-3.0176677E-2,1.2979926E-2,-4.4648826E-2,1.654946E-2,-5.9462767E-2,-3.564643E-2,-7.778718E-3,4.7825668E-2,-6.91452E-2,7.4305227E-3],"categories":[],"categories_nodes":[],"categories_segments":[],"categories_sizes":[],"default_left":[0,0,0,0,0,0,0,0,0,0,0,0,0,0,0,0,0,0,0,0,0,0,0,0,0,0,0,0,0,0,0],"id":43,"left_children":[1,3,5,7,9,11,13,15,17,19,21,23,25,27,29,-1,-1,-1,-1,-1,-1,-1,-1,-1,-1,-1,-1,-1,-1,-1,-1],"loss_changes":[5.1697033E1,4.2808313E0,8.398804E0,5.0273433E0,8.0172615E0,5.243622E0,2.5477715E0,1.8906529E0,2.8630066E0,3.2572346E0,3.5307999E0,6.6543427E0,2.6669235E0,2.813365E0,7.58415E-1,0E0,0E0,0E0,0E0,0E0,0E0,0E0,0E0,0E0,0E0,0E0,0E0,0E0,0E0,0E0,0E0],"parents":[2147483647,0,0,1,1,2,2,3,3,4,4,5,5,6,6,7,7,8,8,9,9,10,10,11,11,12,12,13,13,14,14],"right_children":[2,4,6,8,10,12,14,16,18,20,22,24,26,28,30,-1,-1,-1,-1,-1,-1,-1,-1,-1,-1,-1,-1,-1,-1,-1,-1],"split_conditions":[1.85E1,1.591E0,7.708619E1,8.4E0,4.623345E0,2.044E0,3.568E1,5.945E-1,5.09E-1,2.165E0,1.9559E0,3.58E0,1.7067644E1,9.67E0,3.7459003E2,6.681502E-2,-2.5998253E-2,-4.4202264E-2,5.5407587E-2,5.3554233E-3,-3.5524637E-2,-3.0176677E-2,1.2979926E-2,-4.4648826E-2,1.654946E-2,-5.9462767E-2,-3.564643E-2,-7.778718E-3,4.7825668E-2,-6.91452E-2,7.4305227E-3],"split_indices":[8,3,0,8,0,3,5,3,9,3,3,5,0,5,0,0,0,0,0,0,0,0,0,0,0,0,0,0,0,0,0],"split_type":[0,0,0,0,0,0,0,0,0,0,0,0,0,0,0,0,0,0,0,0,0,0,0,0,0,0,0,0,0,0,0],"sum_hessian":[2.12076E3,1.2918639E3,8.288961E2,1.420681E2,1.1497958E3,7.2050287E2,1.0839325E2,3.752027E1,1.0454783E2,1.9545255E2,9.543432E2,1.6581299E2,5.546898E2,9.3652824E1,1.4740428E1,3.7216032E0,3.3798668E1,5.3234434E0,9.922439E1,6.365564E1,1.317969E2,4.2690746E1,9.1165247E2,1.031071E2,6.2705887E1,3.8684012E2,1.6784975E2,6.652854E1,2.7124285E1,1.1948676E1,2.7917511E0],"tree_param":{"num_deleted":"0","num_feature":"10","num_nodes":"31","size_leaf_vector":"1"}},{"base_weights":[-2.8760528E-2,-4.1296256E-1,4.0471025E-2,-4.5513648E-1,-2.2027373E-1,1.4489588E-1,-3.0604157E-1,-4.6157646E-1,5.151071E-2,5.7330646E-2,-2.4510339E-1,-2.3985608E-2,2.8908932E-1,-5.7383526E-2,-5.086156E-1,-7.2441496E-2,-4.447614E-2,-2.1587832E-2,-7.367326E-2,6.967844E-3,-5.7414442E-2,6.171115E-2,8.047881E-3,2.3112077E-2,-6.934659E-2,-9.311023E-2,-6.726807E-2],"categories":[],"categories_nodes":[],"categories_segments":[],"categories_sizes":[],"default_left":[0,0,0,0,0,0,0,0,0,0,0,0,0,0,0,0,0,0,0,0,0,0,0,0,0,0,0],"id":44,"left_children":[1,3,5,7,9,11,13,15,-1,-1,17,19,21,23,25,-1,-1,-1,-1,-1,-1,-1,-1,-1,-1,-1,-1],"loss_changes":[5.7420734E1,2.4104195E0,6.623622E1,1.7076302E0,1.1233749E0,3.429464E1,2.123523E1,5.7717514E-1,0E0,0E0,1.347481E0,1.6480318E1,2.177473E1,1.6678738E1,9.0862656E-1,0E0,0E0,0E0,0E0,0E0,0E0,0E0,0E0,0E0,0E0,0E0,0E0],"parents":[2147483647,0,0,1,1,2,2,3,3,4,4,5,5,6,6,7,7,10,10,11,11,12,12,13,13,14,14],"right_children":[2,4,6,8,10,12,14,16,-1,-1,18,20,22,24,26,-1,-1,-1,-1,-1,-1,-1,-1,-1,-1,-1,-1],"split_conditions":[1.14E1,6.81E-1,4.81E0,4.1745E3,6.91E-1,2.08E1,8.1E-1,1.07E1,5.151071E-2,5.7330646E-2,1.593454E2,7.547E0,2.8725E2,1.868E1,1.286E1,-7.2441496E-2,-4.447614E-2,-2.1587832E-2,-7.367326E-2,6.967844E-3,-5.7414442E-2,6.171115E-2,8.047881E-3,2.3112077E-2,-6.934659E-2,-9.311023E-2,-6.726807E-2],"split_indices":[8,2,5,4,2,8,2,8,0,0,1,3,7,5,5,0,0,0,0,0,0,0,0,0,0,0,0],"split_type":[0,0,0,0,0,0,0,0,0,0,0,0,0,0,0,0,0,0,0,0,0,0,0,0,0,0,0],"sum_hessian":[2.1541064E3,3.275996E2,1.8265067E3,2.661124E2,6.148723E1,1.4046533E3,4.2185336E2,2.6494485E2,1.1675202E0,1.1349413E0,6.0352287E1,6.473921E2,7.572613E2,1.9075873E2,2.3109462E2,2.3063397E2,3.431089E1,4.5299778E1,1.5052509E1,5.423718E2,1.0502024E2,4.970865E2,2.6017484E2,1.2596721E2,6.479153E1,7.3611824E1,1.5748279E2],"tree_param":{"num_deleted":"0","num_feature":"10","num_nodes":"27","size_leaf_vector":"1"}},{"base_weights":[7.516952E-2,1.9921994E-2,4.0530705E-1,1.9511098E-1,-4.122313E-2,2.9273435E-1,5.1421714E-1,4.057228E-2,4.7798753E-1,-1.0298618E-1,1.6050498E-1,7.165109E-2,3.4857112E-1,1.4889576E-1,8.005332E-2,-1.01581495E-2,3.2546718E-2,9.3252584E-2,3.2513723E-2,-2.0131627E-2,2.665687E-2,1.0078917E-1,1.1961573E-2,2.6628746E-2,-3.8431954E-2,7.557054E-2,3.3336557E-2,-2.3689132E-2,4.8774123E-2],"categories":[],"categories_nodes":[],"categories_segments":[],"categories_sizes":[],"default_left":[0,0,0,0,0,0,0,0,0,0,0,0,0,0,0,0,0,0,0,0,0,0,0,0,0,0,0,0,0],"id":45,"left_children":[1,3,5,7,9,11,13,15,17,19,21,23,25,27,-1,-1,-1,-1,-1,-1,-1,-1,-1,-1,-1,-1,-1,-1,-1],"loss_changes":[4.5300964E1,2.2877562E1,3.9847908E0,2.4065083E1,1.9740456E1,2.1328506E0,1.0384865E0,6.9170127E0,6.9592934E0,1.06742935E1,1.5152423E1,1.4444671E0,2.5078697E0,7.704351E-1,0E0,0E0,0E0,0E0,0E0,0E0,0E0,0E0,0E0,0E0,0E0,0E0,0E0,0E0,0E0],"parents":[2147483647,0,0,1,1,2,2,3,3,4,4,5,5,6,6,7,7,8,8,9,9,10,10,11,11,12,12,13,13],"right_children":[2,4,6,8,10,12,14,16,18,20,22,24,26,28,-1,-1,-1,-1,-1,-1,-1,-1,-1,-1,-1,-1,-1,-1,-1],"split_conditions":[2.35E1,3.0086021E0,9.326E3,2.614E0,8.491E0,1.915E0,2.721E1,2.41215E3,1.152E0,2.1431204E2,1.2636205E1,1.417301E2,8.429439E0,6.71E-1,8.005332E-2,-1.01581495E-2,3.2546718E-2,9.3252584E-2,3.2513723E-2,-2.0131627E-2,2.665687E-2,1.0078917E-1,1.1961573E-2,2.6628746E-2,-3.8431954E-2,7.557054E-2,3.3336557E-2,-2.3689132E-2,4.8774123E-2],"split_indices":[5,0,4,3,3,3,5,7,9,0,0,1,0,2,0,0,0,0,0,0,0,0,0,0,0,0,0,0,0],"split_type":[0,0,0,0,0,0,0,0,0,0,0,0,0,0,0,0,0,0,0,0,0,0,0,0,0,0,0,0,0],"sum_hessian":[2.4849197E3,2.130766E3,3.541537E2,5.505681E2,1.5801979E3,1.7822694E2,1.7592676E2,3.5776004E2,1.9280804E2,1.2109242E3,3.692737E2,3.721866E1,1.4100829E2,1.00373745E1,1.6588937E2,2.2208826E2,1.3567178E2,1.2235877E2,7.044927E1,1.0909661E3,1.199581E2,4.8195568E1,3.2107816E2,2.9057497E1,8.1611595E0,6.0229683E1,8.0778595E1,3.5312657E0,6.5061083E0],"tree_param":{"num_deleted":"0","num_feature":"10","num_nodes":"29","size_leaf_vector":"1"}},{"base_weights":[-6.279707E-2,4.658318E-2,-2.4277708E-1,4.2557415E-1,3.8819622E-2,-2.7103755E-1,1.0390139E-1,-0E0,5.7554877E-1,-9.447954E-2,5.907789E-2,-2.8350654E-1,2.2347501E-1,1.6435575E-1,-5.92444E-2,-5.5024594E-2,8.906795E-2,8.254071E-3,1.0386447E-1,-2.7548917E-2,8.887341E-3,1.5465605E-2,-7.4677654E-3,-1.7797243E-2,-4.824578E-2,8.156895E-2,-5.981061E-2,1.1636733E-2,8.6134605E-2],"categories":[],"categories_nodes":[],"categories_segments":[],"categories_sizes":[],"default_left":[0,0,0,0,0,0,0,0,0,0,0,0,0,0,0,0,0,0,0,0,0,0,0,0,0,0,0,0,0],"id":46,"left_children":[1,3,5,7,9,11,13,15,17,19,21,23,25,27,-1,-1,-1,-1,-1,-1,-1,-1,-1,-1,-1,-1,-1,-1,-1],"loss_changes":[4.085418E1,3.7184556E0,7.757263E0,1.6611104E0,3.4299755E0,4.609436E0,1.9252093E0,2.2773232E0,1.0007453E0,2.328E0,5.297431E0,4.3382416E0,4.1906114E0,1.8151222E0,0E0,0E0,0E0,0E0,0E0,0E0,0E0,0E0,0E0,0E0,0E0,0E0,0E0,0E0,0E0],"parents":[2147483647,0,0,1,1,2,2,3,3,4,4,5,5,6,6,7,7,8,8,9,9,10,10,11,11,12,12,13,13],"right_children":[2,4,6,8,10,12,14,16,18,20,22,24,26,28,-1,-1,-1,-1,-1,-1,-1,-1,-1,-1,-1,-1,-1,-1,-1],"split_conditions":[1.85E1,8.244E-1,1.6151561E2,1.111E2,7.1E0,3.5458862E2,6.251E2,6.15E-1,6.47E2,1.9174123E2,1.33E1,1.873E0,9.22E-1,5.2233887E2,-5.92444E-2,-5.5024594E-2,8.906795E-2,8.254071E-3,1.0386447E-1,-2.7548917E-2,8.887341E-3,1.5465605E-2,-7.4677654E-3,-1.7797243E-2,-4.824578E-2,8.156895E-2,-5.981061E-2,1.1636733E-2,8.6134605E-2],"split_indices":[8,3,0,4,8,1,8,2,6,1,8,3,2,0,0,0,0,0,0,0,0,0,0,0,0,0,0,0,0],"split_type":[0,0,0,0,0,0,0,0,0,0,0,0,0,0,0,0,0,0,0,0,0,0,0,0,0,0,0,0,0],"sum_hessian":[2.0711182E3,1.288797E3,7.8232104E2,2.345165E1,1.2653455E3,7.240249E2,5.8296127E1,6.521468E0,1.6930182E1,1.6531447E2,1.1000309E3,7.072475E2,1.67774E1,5.3370064E1,4.926064E0,4.5699267E0,1.9515415E0,3.8007896E0,1.3129393E1,1.0478716E2,6.0527306E1,7.839941E2,3.1603687E2,1.3489476E2,5.723527E2,1.1348117E1,5.429283E0,4.620929E1,7.160775E0],"tree_param":{"num_deleted":"0","num_feature":"10","num_nodes":"29","size_leaf_vector":"1"}},{"base_weights":[-2.7128315E-2,-4.1164374E-1,3.7036292E-2,-4.664946E-1,-2.4782181E-1,1.3025738E-1,-2.867997E-1,-4.7425255E-1,4.905608E-2,-1.3675694E-1,-4.198108E-1,-2.3840368E-2,2.6707333E-1,-5.1406164E-2,-4.954463E-1,-5.368475E-3,-7.171166E-2,-4.7527663E-2,3.097901E-2,-7.150023E-2,1.0411042E-3,2.652382E-3,-8.148997E-2,5.755378E-2,7.357848E-3,2.0031502E-2,-6.764388E-2,-5.9148867E-2,-8.379714E-2],"categories":[],"categories_nodes":[],"categories_segments":[],"categories_sizes":[],"default_left":[0,0,0,0,0,0,0,0,0,0,0,0,0,0,0,0,0,0,0,0,0,0,0,0,0,0,0,0,0],"id":47,"left_children":[1,3,5,7,9,11,13,15,-1,17,19,21,23,25,27,-1,-1,-1,-1,-1,-1,-1,-1,-1,-1,-1,-1,-1,-1],"loss_changes":[5.1593594E1,2.3844986E0,5.4137157E1,1.6873589E0,1.3526111E0,2.9396563E1,1.9578854E1,2.8355408E-1,0E0,3.3423865E0,7.80704E-1,1.4229329E1,1.8686852E1,1.4250382E1,8.190651E-1,0E0,0E0,0E0,0E0,0E0,0E0,0E0,0E0,0E0,0E0,0E0,0E0,0E0,0E0],"parents":[2147483647,0,0,1,1,2,2,3,3,4,4,5,5,6,6,7,7,9,9,10,10,11,11,12,12,13,13,14,14],"right_children":[2,4,6,8,10,12,14,16,-1,18,20,22,24,26,28,-1,-1,-1,-1,-1,-1,-1,-1,-1,-1,-1,-1,-1,-1],"split_conditions":[1.12E1,5.86E-1,4.81E0,4.1745E3,3.3693203E1,2.08E1,8.19E-1,2.2E1,4.905608E-2,1.368106E2,1.06E1,2.37819E2,2.8725E2,1.868E1,6.37E1,-5.368475E-3,-7.171166E-2,-4.7527663E-2,3.097901E-2,-7.150023E-2,1.0411042E-3,2.652382E-3,-8.148997E-2,5.755378E-2,7.357848E-3,2.0031502E-2,-6.764388E-2,-5.9148867E-2,-8.379714E-2],"split_indices":[8,2,5,4,0,8,2,4,0,1,8,0,7,5,8,0,0,0,0,0,0,0,0,0,0,0,0,0,0],"split_type":[0,0,0,0,0,0,0,0,0,0,0,0,0,0,0,0,0,0,0,0,0,0,0,0,0,0,0,0,0],"sum_hessian":[2.0864019E3,2.9704507E2,1.7893568E3,2.1931013E2,7.773495E1,1.3905658E3,3.9879108E2,2.1810852E2,1.2016009E0,4.976808E1,2.7966866E1,6.5441235E2,7.361534E2,1.8878137E2,2.100097E2,2.2915604E0,2.1581697E2,3.2934975E1,1.6833107E1,2.4679178E1,3.2876875E0,6.0758167E2,4.6830673E1,4.7832236E2,2.5783105E2,1.297859E2,5.8995472E1,8.6950966E1,1.2305874E2],"tree_param":{"num_deleted":"0","num_feature":"10",